0.09086648374795914, 0.2873459756374359, 0.20570959150791168, 0.16453219950199127, 0.3420964777469635, -0.014634480699896812, 0.174591526389122, 0.45519447326660156, 0.22177736461162567, 0.18593308329582214, 0.3291337788105011, 0.12413045018911362, 0.32174015045166016, 0.11696203052997589, 0.5155677795410156, 0.3899945318698883, 0.3889544606208801, 0.28024154901504517, -0.08986744284629822, 0.3254554867744446, 0.14052380621433258, 0.2736363410949707, -0.01687825657427311, 0.17801880836486816, 0.12457824498414993, 0.10664281249046326, 0.28085124492645264, 0.19285425543785095, -0.04756839573383331, 0.14130845665931702, -0.052915189415216446, 0.10879591852426529, 0.42587557435035706, -0.02452031336724758, 0.21056123077869415, 0.258807510137558, 0.09701480716466904, 0.04832588881254196, 0.2158210724592209, 0.244695246219635, 0.33536776900291443, 0.3956223130226135, -0.0434628389775753, 0.19778671860694885, 0.04514478147029877, 0.11112324148416519, -0.022825395688414574, 0.053126297891139984, 0.14420127868652344, 0.2391217052936554
0.4086572527885437, -0.3049362003803253, 0.3135092258453369, -0.09596328437328339, -0.0559711828827858, 0.0405101478099823, -0.12056552618741989, -0.08289752155542374, 0.006234950385987759, 0.35055676102638245, -0.09376297146081924, 0.12110305577516556, 0.09554800391197205, -0.41537949442863464, 0.42171651124954224, -0.171009361743927, 0.17511698603630066, -0.339613139629364, -0.09710407257080078, 0.10013099759817123, -0.10234943777322769, -0.42700111865997314, 0.19810529053211212, -0.09943679720163345, -0.15080882608890533, 0.32217007875442505, 0.11719025671482086, -0.0469072200357914, 0.23835746943950653, -0.0878959372639656, -0.0658104419708252, -0.0015993451233953238, -0.21940262615680695, -0.20593126118183136, -0.017132969573140144, -0.14073997735977173, -0.015581072308123112, -0.010280015878379345, 0.2065974324941635
