-0.35831642150878906, 0.39938002824783325, -0.0007528732530772686, -0.9029375910758972, -0.0216300617903471, 0.5206741690635681, 0.4683115482330322, 0.4654448628425598, -0.26636847853660583, 0.10002782940864563, 0.09643406420946121, 0.25391465425491333, 0.26578667759895325, -0.28136900067329407, -0.04101298376917839, -0.6117647886276245, -0.5764744281768799, -0.8221378326416016, 0.0032156172674149275, 0.6909360885620117, 0.3344377875328064, 0.6768749356269836, -0.5429174304008484, 0.06609802693128586, -0.05098448321223259, -0.491743803024292, -0.3747665286064148, 0.6580058336257935, 0.055046454071998596, 0.48823419213294983, 0.28711944818496704, 0.019943049177527428, 0.30900344252586365, 0.0004955169279128313, 0.690069317817688, -0.0673973336815834, 0.01907622069120407, -0.5743339657783508, -0.10625287890434265, -0.491551011800766, 0.11097081005573273, 0.13935032486915588, -0.5567585229873657, -0.0021331002935767174, 0.45846208930015564, -0.4896901547908783, 0.2267032414674759, -0.15234015882015228, 0.7593819499015808, 0.2873604893684387, 0.3443988263607025, -0.267292320728302, 0.1980990320444107, 0.33811357617378235, 0.3011797368526459, -0.001163899782113731, 0.20156270265579224, -0.0886061042547226, -0.39961695671081543, 0.10723965615034103, -0.043088361620903015, -0.4476272165775299, -0.20971429347991943, 0.09284768998622894, 0.20480939745903015, 0.5382899641990662, -0.3867493271827698, -0.43445760011672974, 0.3906506597995758, -0.15437816083431244, -0.018774226307868958, -0.36700141429901123, -0.4762761890888214, 0.18899188935756683, -0.0029855703469365835, 0.35777899622917175, 0.6060505509376526, -0.07640744000673294, -0.4319614768028259, -0.41000163555145264, -0.36615607142448425, -0.0006312524201348424, -0.7673606872558594, 0.3302312195301056, -0.19142316281795502, -0.003280994715169072, 0.06323237717151642, -0.2750842273235321, -0.5659109354019165, 0.7733205556869507, 0.5920800566673279, 0.04064100980758667, -0.27174118161201477, 0.31601420044898987, -0.1601276844739914, -0.11877002567052841, 0.3060374855995178, -0.3697442412376404, 0.2970147132873535, -0.8128795027732849
-0.4142952859401703, -0.332242488861084, 0.5045867562294006, -0.3998655080795288, 0.12522591650485992, 0.4010891616344452, 0.42858853936195374, 0.038576073944568634, 0.16167445480823517, 0.05309009179472923, -0.25223755836486816, -0.46404144167900085, -0.007059767842292786, -0.11568864434957504, 0.3583040237426758, -0.19346606731414795, -0.16310706734657288, 0.23268461227416992, -0.12170577794313431, 0.09753197431564331, -0.2669851779937744, 0.2941303551197052, 0.06398899853229523, -0.09586789458990097, -0.3264005780220032, -0.2918468713760376, -0.25717759132385254, 0.07495186477899551, 0.052476610988378525, -0.260641872882843, 0.027223723009228706, 0.28075864911079407, 0.3369852900505066, 0.008967298083007336, -0.42676305770874023, 0.43618372082710266, -0.04508479684591293, -0.15916197001934052, -0.13782885670661926, -0.44459864497184753, -0.06100408732891083, -0.22471120953559875, 0.29552483558654785, 0.35803863406181335, 0.07465004920959473, -0.2718883156776428, 0.19561490416526794, 0.3113563060760498, -0.13977749645709991, 0.22570964694023132, -0.17709431052207947, -0.4906215965747833, 0.471424400806427, -0.4401393234729767, 0.3847861886024475, -0.3419043719768524, 0.18041089177131653, -0.36046236753463745, 0.4027758538722992, -0.1392858773469925, -0.4628945291042328, 0.3557594120502472, -0.4098954498767853, -0.20784159004688263, 0.44283732771873474, 0.44409841299057007, -0.09172727912664413, 0.07424206286668777, -0.05545314401388168, -0.2814978063106537, -0.09364692866802216, -0.23890061676502228, 0.5148512125015259, 0.916642427444458, 0.29668381810188293, 0.07154582440853119, 0.32634440064430237, 0.30510830879211426, 0.4791523814201355, -0.062127821147441864, 0.34384778141975403, 0.06264713406562805, 0.1045992374420166, -0.09664610028266907, 0.0793030634522438, 0.15966816246509552, 0.017790673300623894, -0.2687053680419922, 0.05356974899768829, 0.41869044303894043, -0.01284392923116684, 0.02613324671983719, -0.2629772424697876, 0.06261783093214035, -0.31580162048339844, 0.7591258883476257, -0.10700858384370804, 0.3112245798110962, -0.3378119468688965, 0.015625616535544395
