-0.11395957320928574, 0.16071319580078125, -0.009159796871244907, 0.3932168185710907, 0.2579285204410553, -0.3453180491924286, -0.7607004642486572, -0.03865324333310127, -0.7372097373008728, 0.33600667119026184, 0.17107491195201874, -0.008176579140126705, -0.10750523209571838, -0.015598339028656483, -0.18792369961738586, 0.19152212142944336, 0.23035557568073273, -0.07385428249835968, -0.059624601155519485, 0.5264870524406433, 0.3068113327026367, 0.3155668377876282, -0.6021430492401123, 0.14915569126605988, 0.2567393481731415, -0.36127936840057373, 0.29075324535369873, 0.24185191094875336, -0.08568716794252396, 0.7080736756324768, -0.07906845211982727, -0.17018352448940277, 0.11181994527578354, 0.0034274104982614517, -0.2459513396024704, 0.3331049680709839, -0.28976860642433167, 0.3270079493522644, 0.10982000082731247, -0.29403603076934814, -0.0473841167986393, -0.5735163688659668, 0.25841835141181946, -0.0008842778042890131, 0.1651306450366974, -0.5766764283180237, 0.3521306812763214, 0.2528379261493683, -0.2247636765241623, -0.09455355256795883, -0.4873948097229004, -0.2270001322031021, 0.3584413230419159, -0.0235124658793211, -0.09282538294792175, -0.00825959350913763, 0.15848447382450104, -0.18965156376361847, -0.20304988324642181, -0.37235161662101746, -0.004160430282354355, 0.5285714268684387, -0.09580256044864655, -0.33173105120658875, -0.24674218893051147, 0.3692786991596222, -0.25489547848701477, -0.39264580607414246, -0.0553307831287384, 0.36443185806274414, 0.11886736005544662, -0.30519962310791016, -0.7272878885269165, 0.2469751089811325, -0.0075431689620018005, -0.6244100332260132, 0.4798353314399719, 0.09254271537065506, -0.45862194895744324, -0.8864271640777588, -0.16990487277507782, 0.006770274136215448, -0.03727405145764351, -0.08587692677974701, -0.042683083564043045, -0.007143604569137096, 0.16798658668994904, -0.7211867570877075, -0.6163385510444641, 0.5504240989685059, -0.1010371744632721, 0.22988270223140717, 0.4201935827732086, -0.33085939288139343, -0.11800820380449295, 0.3369181454181671, 0.05007059499621391, -0.5447834134101868, 0.1911071538925171, -0.2040785402059555
0.2834652364253998, 0.19068334996700287, 0.0031711780466139317, 0.598659098148346, 0.30456435680389404, 0.7569780349731445, 0.1954781860113144, -0.12272921204566956, 0.3873496949672699, 0.43517404794692993, -0.06295256316661835, 0.1871674656867981, -0.05204036459326744, 0.2535656690597534, -0.25263580679893494, 0.4994186460971832, 0.010109104216098785, -0.3703196942806244, -0.12188515067100525, 0.3767090141773224, -0.11305935680866241, 0.24888892471790314, -0.34956708550453186, 0.007672396954149008, 0.021072767674922943, -0.09121113270521164, 0.09996498376131058, -0.39623692631721497, -0.09944149851799011, 0.10726219415664673, -0.04563727229833603, 0.46474286913871765, 0.21280613541603088, 0.014462768100202084, 0.15019793808460236, 0.3039401173591614, 0.21207238733768463, 0.12105520069599152, 0.07442489266395569, 0.1025938019156456, -0.04557231813669205, -0.3165731728076935, 0.016297494992613792, 0.011439681053161621, 0.28044089674949646, -0.21531124413013458, 0.487561970949173, 0.4456779658794403, -0.8813108205795288, -0.1840258091688156, -0.18322917819023132, 0.05731372907757759, 0.11795327812433243, -0.14326371252536774, -0.44063541293144226, -0.0020145021844655275, 0.26166000962257385, -0.518593966960907, 0.355864018201828, 0.2809523642063141, 0.12248542159795761, -0.3546592593193054, -0.8534438610076904, 0.1253853142261505, 0.13734155893325806, 0.5275355577468872, 0.07629556953907013, 0.5151875615119934, 0.18910139799118042, 0.21010707318782806, -0.09218253940343857, -0.5414833426475525, -0.37747836112976074, 0.015036228112876415, 0.00020424627291504294, -0.7095720767974854, 0.7859328985214233, 0.20773808658123016, -0.10412240773439407, -0.14975106716156006, -0.23983456194400787, -0.0001064221141859889, 0.02323322743177414, -0.07242488861083984, -0.2779216468334198, -0.008506432175636292, -0.02903045155107975, 0.4837384521961212, 0.6391898393630981, -0.06398385763168335, 0.3098301589488983, -0.08801140636205673, -0.040176618844270706, 0.11171510815620422, 0.1353418231010437, -0.1710852086544037, -0.21276946365833282, 0.3383832573890686, 0.07868506014347076, 0.6096577048301697
0.17000378668308258, 0.033827751874923706, 0.00464576156809926, -0.314236044883728, -0.37488049268722534, 0.4713067412376404, -0.4131377935409546, -0.03712240234017372, -0.3553469181060791, -0.07000716775655746, 0.15441593527793884, -0.19251319766044617, -0.15349271893501282, 0.1790933609008789, -0.597332775592804, -0.31795498728752136, 0.2634769678115845, -0.20458513498306274, -0.17574138939380646, -0.5071849822998047, 0.3584495782852173, 0.3022075295448303, 0.2264426350593567, 0.09449366480112076, 0.037002284079790115, -0.14300943911075592, -0.5501599311828613, -0.1422784924507141, 0.08727151155471802, -0.3093607425689697, 0.11038985848426819, 0.06819456815719604, 0.9682016968727112, -0.0010130801238119602, 0.13896973431110382, 0.24506352841854095, 0.31045594811439514, 0.8386814594268799, -0.14389285445213318, -0.8310396075248718, -0.059335436671972275, -0.3398471474647522, 1.2567839622497559, 0.005269596353173256, 0.4456510841846466, -0.6952409744262695, 0.009299804456532001, -0.11488588154315948, 0.32222333550453186, 0.03844345733523369, -0.7422243356704712, -0.48772531747817993, 0.2618756592273712, -0.24517084658145905, 0.035923175513744354, 0.00351323583163321, -0.396520733833313, 0.2269706130027771, 0.36297935247421265, 0.07191132754087448, 0.046882811933755875, -0.2701522707939148, -0.5038809776306152, 0.1971348077058792, -0.27649176120758057, 0.16057857871055603, 0.27353233098983765, -0.4709200859069824, -0.030135219916701317, 0.21401602029800415, -0.2332971841096878, -0.1759880781173706, 0.0614023394882679, 0.4874613285064697, 0.008412450551986694, 0.31085166335105896, 0.6193834543228149, -0.04080527648329735, 0.20259061455726624, -0.767780601978302, 0.2458549588918686, -0.003991701640188694, 0.3111266791820526, -0.3562508821487427, 0.035920001566410065, -0.0008900307584553957, 0.4059218466281891, -0.24819490313529968, 0.2417607456445694, -0.867545485496521, 0.1999197155237198, -0.16922374069690704, 0.27683377265930176, -0.36264291405677795, 0.1389409303665161, 0.21408329904079437, 0.42964962124824524, -0.3736081123352051, -0.316818505525589, -0.5229796171188354
0.4230496287345886, 0.10744654387235641, 0.0008662937325425446, -0.11343761533498764, -0.24288403987884521, -0.2142655849456787, 0.11087153851985931, 0.18942402303218842, 0.2818821966648102, 0.021458471193909645, 0.1709911823272705, -0.33238500356674194, 0.4137569069862366, -0.3076975643634796, -0.34988921880722046, -0.16190695762634277, -0.1869390457868576, -0.26192033290863037, 0.3569537103176117, -0.3641737997531891, -0.12442285567522049, 0.03178764879703522, 0.1837785691022873, 0.07682645320892334, -0.20869344472885132, 0.19762559235095978, -0.06765338033437729, 0.6458521485328674, 0.11060908436775208, -0.7041365504264832, -0.13386273384094238, 0.10990161448717117, -0.10517152398824692, -0.007887030951678753, -0.2417060136795044, 0.15769709646701813, -0.14762894809246063, 0.6063973307609558, -0.09920741617679596, 0.23047401010990143, -0.29393470287323, 0.3734625279903412, -0.5293238759040833, 0.012258672155439854, 0.21305419504642487, 0.2701629102230072, -0.12330876290798187, -0.11516360938549042, 0.4743664562702179, -0.11194461584091187, -0.16513001918792725, -0.5527528524398804, 0.4196667969226837, 0.6484548449516296, -0.29119327664375305, -0.0034540852066129446, 0.15543189644813538, 0.111129030585289, -0.611992359161377, 0.02342427708208561, 0.07549100369215012, -0.2925229072570801, 0.3850035071372986, -0.2782052755355835, 0.05045463144779205, 0.09148618578910828, 0.28959789872169495, -0.004769034218043089, -0.03878797963261604, 0.19614583253860474, -0.26930829882621765, 0.27657586336135864, -0.2278837412595749, 0.3675062358379364, 0.005148543976247311, -0.31603407859802246, 0.18937243521213531, -0.07387562096118927, 0.4007748067378998, -0.5232013463973999, -0.03535088896751404, -0.01151600107550621, -0.8733964562416077, 0.449746310710907, -0.26488688588142395, -0.0045244935899972916, -0.3372822701931, 0.29277878999710083, -0.12219748646020889, -0.0660712718963623, -0.3309571444988251, -0.40542373061180115, 0.2693842351436615, -0.2511727809906006, 0.16246864199638367, -0.12981751561164856, -0.3276121914386749, -0.11851315200328827, -0.33088991045951843, 0.47079887986183167
-0.6043642163276672, 0.04385526478290558, 0.004127252381294966, -0.17723573744297028, 0.22656135261058807, -0.5618709325790405, -0.4719058871269226, 0.8120274543762207, 0.2815176844596863, -0.40257489681243896, 0.3213919997215271, 0.15347690880298615, -0.3395773470401764, 0.4825664162635803, 0.16463039815425873, 0.3299001157283783, 0.2030877023935318, -0.31685057282447815, 0.09625609219074249, -0.18903210759162903, 0.39212116599082947, -0.7505910396575928, 0.5831378698348999, -0.2704761326313019, -0.03820888698101044, -0.13602453470230103, 0.6901144981384277, -0.276765912771225, 0.22966693341732025, 0.4266696572303772, -0.16248023509979248, -0.012288203462958336, -0.042785607278347015, 0.0035789126995950937, -0.08949042111635208, 0.07396954298019409, 0.02700102888047695, -0.133051797747612, 0.15066051483154297, 0.029975634068250656, -0.3831273019313812, -0.1247192844748497, -0.4444921612739563, 0.00039329801802523434, 0.15130864083766937, -0.32583844661712646, 0.06928596645593643, 0.1628616899251938, -0.13576364517211914, 0.5322194695472717, -0.34963712096214294, 0.31228694319725037, 0.039480458945035934, 0.0031969742849469185, 0.21065384149551392, -0.00012325144780334085, -0.09182236343622208, -0.16576899588108063, 0.3210015594959259, -0.03685549274086952, 0.418650358915329, -0.5731793642044067, 0.009631479158997536, 0.03523945063352585, -0.36167144775390625, -0.5622071623802185, -0.05788968503475189, -0.3548471927642822, 0.4711184799671173, -0.2555186152458191, 0.23610974848270416, 0.18391862511634827, -0.5026119351387024, -0.2348041832447052, -0.0046781813725829124, 0.23062710464000702, -0.11717142164707184, -0.01098607201129198, 0.7377915382385254, -0.40887436270713806, 0.06759707629680634, 2.713050344027579e-05, -0.656618058681488, 0.35415616631507874, -0.3425229787826538, 0.003314243396744132, -0.08130621910095215, -0.6967279314994812, 0.6115995049476624, 0.07228285819292068, 1.041549801826477, -0.2620623707771301, 0.18049800395965576, 0.1679023802280426, -0.08525358885526657, 0.31171104311943054, 0.0700099840760231, -0.24715277552604675, 0.28478172421455383, 0.3529966473579407
0.18671779334545135, -0.19514140486717224, 0.006792114116251469, 0.6218761801719666, 0.012676131911575794, 0.2049342691898346, -0.18551507592201233, -0.11462919414043427, 0.21086131036281586, -0.282368928194046, -0.057305023074150085, 0.29935187101364136, -0.24271607398986816, -0.5501184463500977, 0.35073238611221313, -0.4844682514667511, -0.17075516283512115, 0.6319524645805359, -0.0675460621714592, -0.12139008194208145, 0.13796395063400269, 0.08566825091838837, 0.1533946841955185, 0.2372465580701828, -0.04096390679478645, 0.2599550485610962, 0.27550867199897766, -0.2325735241174698, -0.15682947635650635, -0.3009589612483978, 0.16696858406066895, -0.0004123992403037846, -0.20201632380485535, -0.00734125729650259, -0.4423620104789734, 0.2372971624135971, 0.1735653132200241, -0.04665532335639, -0.01570844277739525, 0.35841017961502075, 0.08915485441684723, -0.0031426192726939917, -0.28495773673057556, -0.0027159748133271933, -0.000980850774794817, 0.3975309729576111, -0.15557861328125, 0.27541354298591614, -0.5156435966491699, 0.30552271008491516, 0.32877838611602783, -0.18077287077903748, 0.38725513219833374, 0.04075786843895912, 0.8079729080200195, 0.00677620992064476, -0.6784154772758484, 0.020892910659313202, 0.3379654288291931, 0.0024969130754470825, 0.20475219190120697, -0.5514365434646606, -0.3583507239818573, -0.25101813673973083, 0.013424763455986977, -0.18471454083919525, -0.07343059033155441, -0.6193369030952454, 0.21080270409584045, 0.09724569320678711, -0.5085074305534363, -0.4354809820652008, -0.013635060749948025, -0.2154989391565323, 0.0011548033216968179, 0.9230718612670898, 0.061476629227399826, 0.2841913402080536, 0.007140196859836578, 0.14603880047798157, -0.16763022541999817, -0.0017227169591933489, 0.05985170975327492, 0.30807173252105713, 0.10594348609447479, -0.002049835165962577, -0.1368403136730194, -0.20363542437553406, 0.049670908600091934, -0.012403406202793121, -0.49069350957870483, 0.31276270747184753, 0.10184401273727417, 0.27815863490104675, -0.14677348732948303, 0.4111284911632538, -0.10154927521944046, -0.7474602460861206, 0.04865364357829094, 0.5864794254302979
0.5115568041801453, 0.12503106892108917, -0.0013554483884945512, -0.04967835918068886, -0.24753683805465698, -0.21682724356651306, -0.41271352767944336, -0.6636782884597778, -0.18726065754890442, -0.15014797449111938, 0.08470547199249268, 0.07489991188049316, 0.044192176312208176, 0.3925515115261078, -0.2849183976650238, -0.5554236769676208, 0.24565325677394867, 0.8676310181617737, -0.36583635210990906, 0.06860724091529846, -0.47130244970321655, 0.5770123600959778, -0.476215124130249, 0.049653541296720505, -0.22449980676174164, -0.7025769948959351, 0.6743043065071106, -0.1363736093044281, -0.1137985810637474, -0.6974488496780396, -0.004696370102465153, -0.014369703829288483, 0.35686713457107544, 0.006325493101030588, 0.34606531262397766, 0.2952173352241516, 0.20505310595035553, -0.5986430644989014, 0.19621247053146362, 0.669552206993103, 0.4738413095474243, -0.08126082271337509, 0.16726893186569214, -0.002197215799242258, 0.0865214616060257, -0.38377645611763, -0.020384835079312325, 0.09560547769069672, 0.1702847182750702, -0.4407387375831604, -0.4699746072292328, 0.3799746036529541, 0.43514880537986755, -0.44657638669013977, 0.4344818890094757, 0.010847043246030807, -0.32763007283210754, 0.11239562928676605, -0.009536913596093655, -0.3170304596424103, 0.17774954438209534, 0.5215009450912476, 0.03843934088945389, -0.17336589097976685, -0.26661697030067444, -0.06211375445127487, 0.2257816046476364, 0.5401520729064941, -0.1713845580816269, -0.19642746448516846, 0.175750732421875, 0.0789167657494545, -0.04978330805897713, 0.587932288646698, -0.007569693960249424, 0.32779160141944885, -0.4065626263618469, 0.12044409662485123, -0.4607313573360443, -0.8098874092102051, -0.29954785108566284, -0.010284289717674255, -0.9911457896232605, -0.16365911066532135, 0.46565818786621094, 0.004551686812192202, -0.3650790750980377, -0.48048314452171326, 0.7243382334709167, 0.47011929750442505, -0.365877628326416, 0.18835711479187012, -0.320702463388443, 0.6149234175682068, 0.04894215241074562, -0.33787110447883606, -0.045022059231996536, 0.0824139267206192, 0.5465651154518127, -0.63886559009552
0.5857601761817932, -0.3097110688686371, 0.005760160740464926, -0.45123201608657837, -0.05267176032066345, -0.09745124727487564, -0.26579055190086365, 0.1764204502105713, -0.046434301882982254, -0.12634816765785217, 0.025628160685300827, 0.26885515451431274, -0.3911643326282501, 0.246064692735672, 0.6398845314979553, 0.27796322107315063, 0.11602957546710968, -0.6423380374908447, 0.3385177552700043, -0.09909280389547348, -0.17673392593860626, -0.12831076979637146, 0.7838256359100342, -0.27240464091300964, -0.19706666469573975, 0.5025859475135803, 0.19230513274669647, 0.7229611873626709, -0.294405460357666, 0.024372966960072517, -0.5612000226974487, -0.09801942855119705, 0.19053830206394196, 0.004968665540218353, -0.20799016952514648, 0.393263041973114, 0.07184586673974991, -0.3757307529449463, -0.2694826126098633, -0.32415246963500977, 0.04224850982427597, -0.28849974274635315, -0.058536771684885025, 0.011797632090747356, 0.0869799256324768, 0.1787855625152588, 0.15205061435699463, -0.10051954537630081, -0.6472001075744629, -0.4240282475948334, 0.002841867273673415, 0.14119108021259308, 0.1597938984632492, -0.1847151666879654, 0.7420026659965515, 0.004346552304923534, -0.5560057759284973, -0.2758813202381134, -0.4250580072402954, -0.32601746916770935, 0.005763567052781582, -0.4825807213783264, 0.32356947660446167, 0.39585044980049133, 0.09860892593860626, 0.6583605408668518, -0.33094772696495056, 0.553048312664032, -0.1757630556821823, 0.21359676122665405, -0.08236923813819885, 0.40425562858581543, -0.19129972159862518, 0.4990343153476715, 0.007238371763378382, 0.74795001745224, -0.42515745759010315, -0.20071399211883545, 0.5991516709327698, 0.6068025827407837, 0.38238465785980225, -0.005827074870467186, -0.3557918071746826, -0.15456196665763855, -0.30405256152153015, 0.00299000833183527, -0.13668249547481537, -0.2809085547924042, -0.7214301824569702, -0.36230093240737915, 0.9698382616043091, -0.05686214938759804, -0.2577283978462219, 0.09221423417329788, -0.33722060918807983, -0.3223206400871277, 0.25533002614974976, 0.5511855483055115, -0.2504936754703522, 0.3453126847743988
-0.1076434776186943, -0.3665037453174591, 0.008567209355533123, -0.1948636770248413, 0.15337708592414856, 0.7147289514541626, -0.2397092878818512, 0.24767759442329407, 0.07124809920787811, -0.09840933233499527, -0.1202344074845314, -0.3220561742782593, -0.6106290221214294, -0.30346202850341797, 0.0246562659740448, 0.6237871050834656, 0.3967686593532562, -0.40553852915763855, 0.05345577746629715, 0.36892518401145935, 0.9309169054031372, 0.03494482487440109, -0.026272328570485115, 0.23889058828353882, 0.03443694859743118, 0.395313024520874, 0.5896682143211365, -0.3307482898235321, 0.20491838455200195, 0.23207814991474152, -0.06652294099330902, 0.3503333628177643, -0.26726314425468445, 0.004101433791220188, -0.512037456035614, 0.15857671201229095, 0.12350752204656601, -0.5109953880310059, -0.12193562835454941, -0.40177255868911743, 0.1389235556125641, -0.4174695909023285, 0.3875133693218231, 0.007484160363674164, -0.1940930187702179, 0.7042844295501709, -0.3986721634864807, -0.336297869682312, 0.18962059915065765, -0.15557639300823212, 0.5661092400550842, 0.2581178843975067, -0.2839187979698181, -0.023407606407999992, -0.3650646209716797, 0.003664751537144184, 0.6069021224975586, -0.05917590111494064, -0.07301215082406998, -0.20252062380313873, -0.07888142019510269, -0.29308420419692993, 0.45566123723983765, 0.25946688652038574, -0.1977638602256775, 0.12433117628097534, 0.21003159880638123, -0.22061346471309662, 0.043421465903520584, -0.005320592317730188, 0.25829392671585083, 0.1181393414735794, 0.8040068745613098, 0.014251655898988247, 0.002194825327023864, -0.7024267911911011, 0.1715003103017807, 0.3011627793312073, -0.10705243796110153, -0.09409373998641968, 0.23954255878925323, 0.003804964479058981, -0.7312519550323486, -0.12495904415845871, -0.25734812021255493, 0.0004271634970791638, 0.06328549236059189, -0.6019707918167114, 0.24844501912593842, -0.5245600938796997, -0.2574203610420227, -0.3052263855934143, 0.09443704038858414, 0.09527138620615005, -0.07784265279769897, 0.1304669827222824, 0.4795117974281311, 0.21806088089942932, 0.15130145847797394, 0.3801262080669403
-0.5815489888191223, -0.06471443176269531, -0.004360438324511051, -0.9089269638061523, 0.0711163654923439, 0.12070191651582718, 0.2404921054840088, -0.4165016710758209, 0.5955209732055664, -0.20039474964141846, 0.017948448657989502, -0.1035294160246849, 0.0031984238885343075, 0.12317309528589249, -0.2580854594707489, -0.7895357012748718, 0.6474887132644653, -0.5340644717216492, -0.011470445431768894, -0.07606296241283417, -0.24402622878551483, -0.5957981944084167, -0.7319995760917664, 0.509503185749054, 0.2811433672904968, -0.018253423273563385, -0.08150716125965118, 0.71024090051651, -0.22037972509860992, -0.07262551784515381, -0.3802405297756195, 0.22572125494480133, -0.043242812156677246, 0.004604737740010023, 0.695972204208374, -0.1966581642627716, 0.16481533646583557, 0.674467146396637, -0.22456936538219452, 0.06993144750595093, 0.04584767296910286, -0.0735798254609108, 0.4745820462703705, 0.004966380540281534, 0.8127725720405579, 0.1734749674797058, 0.2513939142227173, -0.46076732873916626, -0.7475552558898926, 0.30166640877723694, 0.305581271648407, -0.3322676420211792, -0.33410897850990295, 0.1692741960287094, 0.010966584086418152, -0.0034588908310979605, 0.09889039397239685, 0.0059891617856919765, -0.5019460320472717, 0.018582049757242203, -0.2678084671497345, -0.1727999746799469, 0.2462710440158844, -0.11005891114473343, -0.08425644040107727, -0.53822261095047, 0.5836861729621887, -0.1997905969619751, 0.09670594334602356, -0.02283823862671852, 0.039970528334379196, 0.033488109707832336, 0.16351589560508728, -0.45681992173194885, -0.0042754895985126495, 0.00707958173006773, -0.6190271377563477, -0.4915696978569031, 0.6156594157218933, -0.09713640809059143, 0.7319433689117432, 0.006069280672818422, -0.5496969223022461, -0.03479808196425438, -0.3233395218849182, -0.002052856842055917, -0.211017444729805, 0.021505795419216156, -0.885179877281189, -0.1893794983625412, 0.0950811579823494, 0.11755045503377914, 0.2370336502790451, 0.20107391476631165, -0.010544450022280216, 0.0565221831202507, 0.16066622734069824, -0.5331082940101624, 0.5545763373374939, 0.6958386301994324
-0.2330593466758728, 0.0258810892701149, -0.005767911206930876, 0.1918899416923523, -0.2132713794708252, 0.7059769034385681, 0.6339786648750305, 0.6080386638641357, -0.7670683264732361, -0.2988642454147339, 0.1559962034225464, -0.44052937626838684, -0.5145345330238342, -0.060669492930173874, -0.006407061126083136, -0.7001890540122986, -0.35308098793029785, 0.12785547971725464, 0.2873508632183075, -0.04625767096877098, 0.19178996980190277, 0.18269391357898712, 0.3060300350189209, -0.03261351212859154, 0.12667863070964813, -0.5611275434494019, 0.14914648234844208, -0.1583380103111267, -0.18748067319393158, -0.08169596642255783, -0.10107917338609695, -0.17688241600990295, 0.3619336187839508, 0.00010393388220109046, -0.4652395248413086, 0.2622579038143158, -0.1571868360042572, 0.015778131783008575, 0.28115859627723694, 0.38150882720947266, 0.16703909635543823, 0.38394254446029663, 0.36328399181365967, 0.001064610667526722, -0.2462877631187439, 0.04337010160088539, -0.16210198402404785, -0.10539282858371735, -0.25145262479782104, 0.5336159467697144, -0.1517135351896286, 0.1389167755842209, 0.04616896063089371, 0.30078986287117004, -0.5214000344276428, -0.006370190065354109, 0.4988475441932678, -0.3964087665081024, 0.43254354596138, 0.16062654554843903, -0.08963749557733536, -0.6163038015365601, 0.6144058108329773, -0.05705476552248001, 0.40242713689804077, -0.5655508041381836, 0.06051876023411751, -0.42331576347351074, -0.16935332119464874, -0.30958643555641174, -0.10896429419517517, 0.09578225761651993, -0.37186136841773987, 0.14650769531726837, -0.0031130751594901085, -0.5214697122573853, -0.5534166097640991, 0.0992206484079361, 0.28115421533584595, 0.43997588753700256, 0.018953828141093254, 0.004507297649979591, 0.05410458892583847, -0.20892225205898285, 0.2726345658302307, -0.004726434126496315, 0.02324131689965725, 0.752763032913208, -0.03882107883691788, 0.4561783969402313, 0.3123938739299774, -0.1686670184135437, -0.27736085653305054, 0.24669848382472992, 0.03003651089966297, 0.38108423352241516, -0.06202187016606331, 0.5644126534461975, -0.3058406114578247, -0.7216205596923828
0.4031754434108734, 0.7084720730781555, 0.002663280349224806, -0.858445942401886, 0.059866808354854584, -1.1560360193252563, 0.5541190505027771, -0.5171945691108704, -0.3507186472415924, -0.21526046097278595, -0.11684586852788925, 0.35546138882637024, -0.5124168395996094, -0.20918285846710205, 0.04908963292837143, 0.10874149203300476, 0.35818183422088623, 0.3859778940677643, -0.007344357669353485, 0.6673918962478638, -0.4104664921760559, -0.3627910912036896, 0.5164719223976135, -0.3347459137439728, 0.23215965926647186, 0.2705080509185791, 0.23728112876415253, 0.5850368142127991, 0.4163396656513214, -0.6314800381660461, -0.38316667079925537, 0.06423680484294891, 0.15919333696365356, 0.0072691054083406925, 0.07254074513912201, -0.03710316866636276, -0.23910292983055115, 0.245863139629364, -0.28166335821151733, -0.09420809149742126, 0.3614238202571869, 0.05828159675002098, 0.019409455358982086, 0.0007235558587126434, 0.09141600877046585, 0.7913932800292969, 0.19621597230434418, -0.4461113512516022, -0.500089704990387, 0.6180103421211243, 0.37333402037620544, -0.42207399010658264, -0.5160291790962219, 0.6099745631217957, 0.26364657282829285, 0.002027893904596567, 0.5461407899856567, -0.13891150057315826, -0.0020694592967629433, -0.39792707562446594, 0.21227161586284637, 0.5980088710784912, 0.1303952932357788, 0.03768530488014221, 0.4951334297657013, -0.721371591091156, -0.023345809429883957, -0.01954469084739685, -0.38315507769584656, -0.04952549561858177, -0.19630347192287445, 0.17111115157604218, 0.16465967893600464, 0.07435283809900284, -0.0027761731762439013, -0.566594660282135, -0.49442121386528015, -0.19394604861736298, 0.5744902491569519, 0.5872700214385986, -0.13847947120666504, 0.0017306017689406872, -0.5533879995346069, -0.6650699377059937, 0.16222764551639557, 0.0007719261338934302, -0.1291029006242752, 0.6044677495956421, 0.155014768242836, -0.3293130397796631, -0.06116808205842972, -0.05123110115528107, 0.23155510425567627, 0.08918975293636322, 0.1712919920682907, -0.0686449334025383, 0.14873434603214264, -0.5610436201095581, -0.5623687505722046, -0.6326882243156433
-0.5499789118766785, -0.5984368324279785, 0.00530842412263155, -0.4117039442062378, -0.4079020321369171, -0.32509714365005493, 0.4179266095161438, 0.3570568263530731, 0.35859227180480957, 0.03828314319252968, -0.4881247282028198, -0.15178824961185455, -0.3143170177936554, -0.10253605246543884, 0.12420467287302017, 0.393110454082489, 0.01527777872979641, -0.5751391649246216, 0.24740789830684662, -0.5415080785751343, 0.46573224663734436, -0.45833471417427063, -0.29224488139152527, -0.13218073546886444, -0.038784634321928024, 0.2995845675468445, 0.21515727043151855, -0.11069421470165253, -0.29763486981391907, -0.28375181555747986, -0.5285999178886414, 0.19706955552101135, 0.6356422305107117, -0.003283395431935787, -0.7317859530448914, 0.04217825084924698, -0.04599781706929207, -0.39493638277053833, 0.14744971692562103, -0.24902623891830444, -0.27372387051582336, 0.17918731272220612, 0.28816136717796326, -0.0037718424573540688, -0.48590973019599915, -0.435971200466156, 0.007639450486749411, -0.2883094549179077, -0.13438770174980164, -0.28893646597862244, -0.32261574268341064, 0.49183788895606995, 0.2153766006231308, 0.6673957705497742, 0.024350155144929886, -0.0032546957954764366, 0.015504885464906693, 0.011178973130881786, -0.17606432735919952, -0.10143601149320602, 0.2703855633735657, 0.4531603753566742, -0.4459419548511505, 0.009275512769818306, 0.07732217758893967, -0.13730141520500183, -0.5353869795799255, 0.44560590386390686, 0.0033410461619496346, -0.29424938559532166, -0.06216096878051758, 0.34391000866889954, 0.22377124428749084, 0.2839302122592926, 0.0038805047515779734, 0.331432968378067, 0.27052927017211914, -0.21399828791618347, -0.3494405746459961, 0.49270838499069214, -0.1286185085773468, -0.0011514010839164257, 0.07815216481685638, 0.09274864941835403, 0.16496244072914124, 0.0005054018693044782, 0.2177380621433258, 0.47644487023353577, 0.08311225473880768, 0.4662191867828369, -0.15165658295154572, 0.2012692242860794, 0.4748833477497101, 0.13975390791893005, 0.19294589757919312, -0.04947895184159279, 0.5390092730522156, -0.40305110812187195, 0.11552270501852036, 0.8937134742736816
0.5316029787063599, -0.5836645364761353, 0.007172984071075916, 0.045817844569683075, -0.022464005276560783, -0.5828892588615417, 0.36417537927627563, -0.6263439655303955, 0.17130886018276215, 0.22539445757865906, 0.20132464170455933, 0.043245650827884674, -0.37844157218933105, 0.1103544756770134, -0.1860685646533966, 0.19292859733104706, 0.6239294409751892, 0.8969994187355042, 0.47268983721733093, -0.2510344982147217, 0.1295199692249298, -0.03273477777838707, 0.6257348656654358, -0.12900295853614807, 0.27314236760139465, 0.194071963429451, 0.3178296387195587, 0.6083358526229858, -0.11474351584911346, -0.22804079949855804, 0.21866074204444885, -0.001786646549589932, -0.02284960076212883, -0.0009234879980795085, 0.23404434323310852, -0.1409417986869812, 0.09412845969200134, -0.4233195185661316, -0.23556718230247498, 0.30534687638282776, 0.0844828337430954, 0.4422557055950165, 0.462013304233551, 0.011658781208097935, 0.5955953598022461, -0.6032963395118713, -0.5695921778678894, -0.07779919356107712, 0.23175212740898132, 0.21053679287433624, -0.06748031824827194, 0.045236289501190186, 0.660958468914032, -0.09191754460334778, -0.8076560497283936, 6.376797682605684e-05, 0.46667537093162537, 0.08694987744092941, -0.28181442618370056, -0.3538920283317566, 0.02901913970708847, 0.1482301503419876, -0.1894282102584839, -0.2103358656167984, 0.31058746576309204, -0.2753179669380188, -0.033462975174188614, -0.5347900390625, 0.46232154965400696, 0.0052595240995287895, 0.047868791967630386, -0.18688970804214478, 0.12168291956186295, 0.4405486583709717, 0.0075852456502616405, -0.78769451379776, -0.180300772190094, 0.15986965596675873, -0.19279919564723969, -0.11740729212760925, 0.2668432593345642, -0.007530362345278263, 0.21695393323898315, 0.3882688283920288, 0.3541644811630249, -0.0026623173616826534, 0.18659178912639618, 0.6428421139717102, -0.5641504526138306, -0.6198274493217468, 0.12936511635780334, 0.058822039514780045, -0.039598479866981506, 0.21192215383052826, 0.42951488494873047, 0.06625798344612122, -0.34539857506752014, -0.33097419142723083, 0.563919723033905, 0.6512979865074158
-0.25366640090942383, 0.11957264691591263, 0.0058942451141774654, 0.06269486248493195, 0.11464481800794601, -0.06848606467247009, -0.2192038893699646, 0.6502307653427124, 0.030631614848971367, 0.15831820666790009, -0.03325754404067993, 0.08694124966859818, -0.20307864248752594, -0.055705614387989044, 0.5113927125930786, -0.7414492964744568, -0.1324005424976349, -0.008025887422263622, 0.049528803676366806, 0.39306896924972534, -0.42695051431655884, -0.4747081398963928, -0.08149310201406479, 0.054103925824165344, -0.2572386562824249, 0.32470396161079407, -0.6190783977508545, 0.04707108438014984, -0.1391771286725998, 0.16605059802532196, 0.2718464136123657, -0.16628490388393402, 0.5574824810028076, 0.004981021396815777, -0.7107481956481934, -0.2070070058107376, 0.42693454027175903, 0.09876877814531326, 0.12029052525758743, -0.007499798201024532, 0.05313087999820709, -0.49528244137763977, 0.07223401963710785, 0.007620970718562603, -0.06868378818035126, -0.46254146099090576, -0.1689530909061432, -0.06526070833206177, -0.5179511904716492, -0.13121622800827026, -0.49286162853240967, -0.3249736428260803, 0.05848078802227974, -1.0020201206207275, 0.03529871255159378, 0.0017143229488283396, -0.10226580500602722, -0.19316242635250092, -0.28792592883110046, -0.19501322507858276, -0.226288840174675, -0.4690031409263611, 0.024396702647209167, -0.15165549516677856, 0.2791091799736023, 0.07200881093740463, -0.20273813605308533, -0.5766434669494629, -0.6591925621032715, -0.016850246116518974, -0.14396196603775024, 0.5892412662506104, 0.31642234325408936, 0.34278634190559387, -0.00015424526645801961, -0.25032421946525574, -0.17580290138721466, 0.09027905762195587, 0.2756481468677521, -0.03876574710011482, -0.32721075415611267, -0.00626241834834218, 0.0264828409999609, -0.03575644642114639, -0.3461897373199463, 0.00023781128402333707, 0.07892543822526932, -0.13656461238861084, 0.2761389911174774, 0.4191673696041107, -0.16827471554279327, 0.11657972633838654, 0.10516301542520523, -0.07124166935682297, 0.2214144766330719, 0.3663182258605957, -0.07039877772331238, -0.3517424166202545, 0.5507447719573975, 0.4695607125759125
0.3866773545742035, 0.5650107264518738, 0.0027350541204214096, -0.49396929144859314, -0.14456865191459656, 0.10875938832759857, -0.07853701710700989, 0.040669310837984085, -0.43685656785964966, -0.04295786842703819, 0.14725205302238464, 0.2953328490257263, 0.19803661108016968, -0.7399190068244934, 0.5260916352272034, 0.34330111742019653, 0.2808626890182495, 0.5114730000495911, 0.21026191115379333, -0.6731415390968323, -0.17220933735370636, -0.464505672454834, 0.6714026927947998, -0.37931862473487854, -0.05950573831796646, 0.43279650807380676, -0.2937910258769989, 0.7108215689659119, -0.20880089700222015, -0.26427772641181946, -0.2893519997596741, 0.09318587929010391, 0.3365401029586792, 0.003983194008469582, 0.0874968096613884, -0.2604385018348694, 0.070042185485363, -0.12424106895923615, -0.017360249534249306, 0.833074152469635, 0.43019425868988037, 0.02746831625699997, -0.08541246503591537, 0.01264024805277586, -0.036578357219696045, 0.15667371451854706, 0.026944873854517937, -0.3377131521701813, -0.9799870252609253, 0.31502100825309753, -0.2461475282907486, -0.1368139386177063, 0.13354383409023285, -0.05863804370164871, -0.42354270815849304, -0.00216649379581213, 0.3246760964393616, -0.02331404760479927, -0.36639246344566345, 0.337139368057251, 0.07862800359725952, -0.08216315507888794, -0.41319581866264343, -0.3560616970062256, -0.5459688901901245, -0.44394099712371826, 0.05906572565436363, 0.6043331027030945, 0.49197623133659363, -0.20204639434814453, 0.09728344529867172, 0.4196854531764984, 0.7457302212715149, -0.3643829822540283, 0.0020339174661785364, -0.08361796289682388, -0.39527571201324463, 0.0644323006272316, 0.32589927315711975, 0.1268938034772873, 0.07920847088098526, -0.003738563507795334, -0.11845061182975769, 0.13290701806545258, 0.15463703870773315, -0.0033174799755215645, 0.28376471996307373, -0.6331675052642822, -0.4167134463787079, -0.1516914814710617, -1.0099724531173706, -0.13173624873161316, 0.18162192404270172, -0.2724699079990387, -0.577028751373291, -0.21071071922779083, 0.00885050930082798, 0.4469059407711029, -0.38098207116127014, -0.3762417733669281
0.3129897713661194, 0.31410127878189087, -0.0037240912206470966, -0.2483922392129898, -0.028113016858696938, 0.5017536878585815, 0.32776832580566406, -0.43540459871292114, 0.2608262896537781, 0.2935188412666321, -0.3331046402454376, 0.02231375314295292, -0.37021058797836304, -0.033969588577747345, 0.23229002952575684, 0.5738282799720764, 0.0969490259885788, 0.18418975174427032, 0.019902903586626053, -0.42978012561798096, 0.17300894856452942, 0.6069034337997437, 0.020137930288910866, 0.07992812246084213, 0.2034658044576645, 0.5924209356307983, 0.41677430272102356, 0.2718052566051483, -0.008757331408560276, 0.26646289229393005, -0.1286425143480301, -0.3128913342952728, 0.16396799683570862, 0.004283824935555458, -0.25798773765563965, 0.1390042006969452, 0.1169859990477562, 0.4576106667518616, -0.3262862265110016, 0.15715590119361877, -0.01377819199115038, 0.21979959309101105, -0.3248409628868103, 0.000533727987203747, 0.11397549510002136, -0.4570828974246979, -0.07920210808515549, -0.5878629088401794, -0.1930922567844391, 0.44319814443588257, -0.24176974594593048, -0.49113065004348755, -0.21324679255485535, 0.1321112960577011, 0.6008660793304443, -0.009502841159701347, -0.23924346268177032, 0.011137436144053936, -0.011087707243859768, 0.0005159019492566586, 0.29456064105033875, 0.4216933846473694, 0.36974236369132996, 0.11252468079328537, 0.1729721575975418, -0.4690115749835968, 0.3207506239414215, -0.6977785229682922, 0.16073401272296906, -0.210475891828537, 0.18207988142967224, 0.09278679639101028, -0.15881599485874176, 0.14595240354537964, -0.0054458449594676495, 0.6679795980453491, 0.01793227344751358, 0.24039004743099213, -0.1912105232477188, 0.43431586027145386, -0.1071060448884964, 0.010532119311392307, -0.16465413570404053, -0.2517443001270294, 0.06997077912092209, -0.0027120360173285007, -0.18153133988380432, 0.41459590196609497, -0.11852341145277023, 0.12950970232486725, -0.40320292115211487, 0.026456499472260475, -0.29987412691116333, -0.25510257482528687, -0.2534521818161011, 0.39837104082107544, -0.3206486701965332, 0.5248816609382629, 0.056938812136650085, 0.44468241930007935
-0.018053334206342697, -0.6843411922454834, 0.010894836857914925, -0.15676668286323547, -0.17904964089393616, 0.41333213448524475, -0.05528304725885391, 0.07638341188430786, 0.15222878754138947, 0.1043049693107605, 0.2841919958591461, -0.4802406132221222, 0.19286371767520905, -0.027284041047096252, -0.12449111044406891, 0.054927680641412735, -0.26938894391059875, 0.24362216889858246, -0.10317332297563553, 0.37132179737091064, 0.6369739174842834, 0.3103336989879608, 0.16342683136463165, 0.18389376997947693, -0.12619788944721222, -0.48770126700401306, -0.39423868060112, 0.40393322706222534, -0.009129323996603489, -0.5886713266372681, 0.5631856918334961, 0.12461401522159576, -0.0012543504126369953, -0.002855562139302492, -0.0546971932053566, -0.26524972915649414, -0.028364786878228188, -0.034954141825437546, -0.19826439023017883, -0.23394741117954254, -0.02052442729473114, -0.17949995398521423, -0.3430282175540924, 0.008472715504467487, -0.2733285129070282, -0.3618040382862091, -0.05458376184105873, 0.016172470524907112, -0.049231722950935364, 0.10691320151090622, -0.32456907629966736, 0.2243446260690689, -0.449677437543869, 0.24882498383522034, 0.3561221957206726, 0.008968590758740902, 0.2407366782426834, -0.3240436315536499, 0.1805601865053177, -0.08600076287984848, 0.36817994713783264, -0.11192196607589722, -0.45209023356437683, 0.17458482086658478, 0.2281140685081482, 0.023736942559480667, 0.019901204854249954, -0.2118930071592331, -0.8645457029342651, 0.11309988051652908, 0.17751196026802063, 0.2548579275608063, -0.8704720735549927, -0.18787510693073273, 0.01879805140197277, 0.11144363135099411, 0.4339982569217682, -0.1299784928560257, 0.0188274122774601, 0.1115318164229393, -0.008115540258586407, -0.007079359143972397, 0.09843737632036209, -0.08765693753957748, 0.23562777042388916, 0.009493245743215084, -0.015132751315832138, 0.10276634991168976, -0.3752949833869934, -1.0302236080169678, -0.6729125380516052, 0.1724068969488144, -0.03214365616440773, -0.1901479959487915, -0.26930031180381775, 0.2475278377532959, -0.0774877592921257, 0.1500120311975479, 0.4211089015007019, 0.7102439403533936
-0.6276716589927673, -0.27928775548934937, 0.0067064487375319, 0.520767867565155, -0.10735180228948593, -0.027132440358400345, -0.23512308299541473, -0.7334466576576233, 0.3092179596424103, 0.020445598289370537, 0.0012897526612505317, 0.26118290424346924, 0.26329296827316284, 0.3703796863555908, 0.3377862274646759, -0.3275967836380005, -0.7618228197097778, 0.2186591774225235, 0.24225027859210968, -0.11512680351734161, 0.0031310427002608776, 0.42052561044692993, 0.45217832922935486, 0.47711578011512756, -0.21993330121040344, -0.21613377332687378, -0.12545928359031677, -0.06294448673725128, 0.2715243101119995, -0.6015828251838684, -0.1833195686340332, 0.05273675173521042, -0.05162173509597778, 0.002404320053756237, -0.6803088188171387, 0.22979819774627686, -0.17906378209590912, 0.3689442276954651, -0.11493126302957535, -0.6492626667022705, 0.24173933267593384, -0.18887947499752045, -0.4200238287448883, 0.001893665175884962, -0.3424668610095978, 0.43788161873817444, 0.5449822545051575, 0.5193527936935425, -0.5488868951797485, -0.06774578243494034, 0.10205750167369843, -0.23348434269428253, -0.24067720770835876, -0.2928865849971771, -0.582588255405426, 0.005265113431960344, -0.06650107353925705, -0.24649342894554138, 0.2246202826499939, 0.11155973374843597, -0.22712278366088867, 0.700725793838501, 0.5775253772735596, -0.03006545454263687, -0.533821702003479, -0.323131799697876, -0.22835232317447662, -0.18103425204753876, 0.5860530138015747, -0.4546665847301483, 0.12364932149648666, -0.32429057359695435, -0.6418477892875671, -0.21967533230781555, -0.0005921178963035345, -0.1776261329650879, -0.6010684967041016, 0.062491875141859055, 0.38008859753608704, 0.05031982436776161, -0.48900771141052246, -0.001812156056985259, 0.5373602509498596, 0.5422902703285217, 0.2772689461708069, 0.0019105393439531326, 0.24087324738502502, -0.6149028539657593, 0.5642285943031311, 0.21883045136928558, -0.2253163754940033, 0.19606523215770721, -0.16248419880867004, -0.017060987651348114, 0.0881856307387352, 0.27824482321739197, -0.31475597620010376, 0.262735515832901, 0.025851571932435036, 0.5148756504058838
-0.14390914142131805, 0.11908130347728729, 0.008805534802377224, 0.34057101607322693, -0.38203704357147217, -0.26663440465927124, 0.48111647367477417, -0.254275918006897, -0.5247251391410828, 0.12009748816490173, 0.1211685836315155, -0.08478089421987534, 0.12260328978300095, -0.21097177267074585, -0.18147926032543182, -0.03325410187244415, 0.513157069683075, -0.22538207471370697, 0.23643966019153595, -0.616854190826416, -0.07270839810371399, -0.4305054545402527, -0.20119649171829224, 0.056830260902643204, 0.14984187483787537, -0.3285055458545685, -0.164184108376503, -0.07589730620384216, 0.26243773102760315, 0.4666961431503296, 0.18199120461940765, -0.13334433734416962, 0.20547299087047577, 0.021964743733406067, -0.025223558768630028, -0.10507044196128845, 0.12258084118366241, -0.09892663359642029, 0.39045020937919617, -0.5657098889350891, 0.013245152309536934, -0.04739760234951973, 0.08266142755746841, -0.004539318848401308, -0.3482144773006439, -0.1981401890516281, 0.23228256404399872, 0.42076534032821655, 0.05624805763363838, -0.14918725192546844, -0.15512216091156006, 0.26755473017692566, 0.38141751289367676, 0.23639707267284393, -0.06808312982320786, 0.008714325726032257, -0.151536762714386, -0.11919950693845749, 0.15486812591552734, 0.008590538054704666, -0.054335374385118484, -0.05927306041121483, 0.6163301467895508, 0.1521146148443222, 0.4149242639541626, 0.495614230632782, 0.19974468648433685, 0.01895807683467865, 0.28371429443359375, 0.22464829683303833, -0.029294392094016075, 0.01647527515888214, 0.0749521479010582, -0.33635184168815613, -0.006360737606883049, 0.4228534996509552, 0.04400872811675072, 0.25082215666770935, 0.021905936300754547, 0.4085189998149872, 0.07938503473997116, -0.0006610010750591755, -0.9404351711273193, -0.13231924176216125, -0.26968058943748474, -0.0017650839872658253, -0.006126443389803171, 0.7199169397354126, 0.46228528022766113, -0.46445342898368835, -0.5372781157493591, 0.3501342535018921, 0.5067512392997742, -0.2906096577644348, 0.0022090969141572714, -0.04716579616069794, -0.2694036364555359, -0.3292893171310425, 0.03907996788620949, -0.791446328163147
end
0.04266960173845291, 0.11895197629928589, -0.2037569135427475, -0.019968731328845024, -0.2550148367881775, 0.017930258065462112, 0.11742040514945984, -0.009430895559489727, -0.10570516437292099, -0.14453387260437012, -0.021404845640063286, 0.200615793466568, 0.18071353435516357, 0.128202423453331, 0.048674218356609344, -0.06913799047470093, -0.14414504170417786, -0.057289596647024155, -0.20220287144184113, 0.2526490390300751, 0.35167455673217773, 0.06559246778488159, 0.28620001673698425, -0.3679054379463196, -0.2873230278491974, -0.09503433108329773, 0.022680455818772316, 0.4352778196334839, -0.21709221601486206, -0.3539573550224304, 0.08267149329185486, 0.16997207701206207, -0.07972557842731476, -0.27335524559020996, 0.04029739648103714, -0.06572185456752777, -0.16983802616596222, 0.16799771785736084, 0.19857420027256012, -0.023372920230031013, -0.07707085460424423, -0.09381315857172012, 0.16169647872447968, 0.1239943653345108, 0.174897238612175, 0.05065672844648361, 0.12440627813339233, 0.11323849111795425, -0.2691252529621124, 0.06509944051504135, -0.13279084861278534, -0.4849267303943634, -0.12064892053604126, 0.08017496019601822, 0.006473831832408905, -0.021870994940400124, 0.14407238364219666, -0.16994629800319672, 0.19057407975196838, -0.23639251291751862, 0.061176519840955734, 0.0191483236849308, -0.09376102685928345, 0.06688214093446732, 0.244675874710083, 0.13908293843269348, -0.2901516854763031, -0.0533619187772274, 0.3033304512500763, 0.2095412313938141, -0.44528821110725403, 0.0019630244933068752, -0.10423993319272995, -0.10587920993566513, -0.38674816489219666, -0.007093053311109543, 0.2830382287502289, 0.2558690309524536, -0.03240868076682091, 0.02846735343337059, 0.279079794883728, -0.09793221950531006, 0.2410411238670349, -0.3659721612930298, -0.014059353619813919, -0.21222178637981415, -0.12220542132854462, 0.33455419540405273, -0.12708672881126404, -0.1425338238477707, -0.19437319040298462, -0.06115283444523811, -0.17358124256134033, 0.35149115324020386, -0.24038219451904297, 0.11827807873487473, -0.17031921446323395, 0.2126132696866989, 0.16093572974205017, 0.4980003237724304
0.0026809293776750565, 0.09505262225866318, 0.22777056694030762, -0.07361935079097748, -0.46800750494003296, 0.02644861489534378, -0.16965517401695251, -0.5129901766777039, 0.43683233857154846, -0.271661639213562, -0.09544491022825241, -0.020579572767019272, 0.06148863583803177, -0.21216729283332825, -0.22736530005931854, 0.042058251798152924, -0.04457566887140274, -0.1437310129404068, -0.24425850808620453, 0.09718183428049088, 0.09302520006895065, -0.3620045483112335, 0.42129838466644287, 0.5306963920593262, 0.02610735595226288, 0.13689427077770233, -0.25788289308547974, 0.15183161199092865, 0.21921035647392273, 0.3943946361541748, -0.12072388082742691, 0.19324903190135956, -0.27246391773223877, 0.1985628604888916, 0.4319675862789154, 0.38659143447875977, 0.09057892858982086, 0.04465964064002037, -0.23504363000392914, 0.12887923419475555, 0.07810674607753754, 0.2173844277858734, 0.1418135017156601, 0.06556297838687897, 0.4603937268257141, -0.270664244890213, -0.23325467109680176, 0.0990198403596878, 0.10259704291820526, -0.37310338020324707, -0.2103002667427063, 0.16964922845363617, 0.1726381629705429, 0.15782007575035095, 0.03579259291291237, 0.045131612569093704, 0.450415700674057, 0.2085595577955246, -0.14313796162605286, 0.11639653891324997, 0.21910502016544342, -0.20713269710540771, -0.3499447703361511, 0.33049121499061584, 0.09808910638093948, -0.02576892450451851, -0.3437049388885498, 0.10138110816478729, -0.2432987242937088, -0.639676570892334, 0.0009115672437474132, -0.08382803201675415, 0.08430351316928864, -0.1046486422419548, 0.4000507891178131, 0.2561466693878174, 0.07915349304676056, 0.47403380274772644, 0.4767996072769165, 0.12722086906433105, -0.4162697196006775, 0.3110385239124298, -0.21361073851585388, -0.008561437018215656, 0.0884711891412735, 0.26565518975257874, -0.034736860543489456, -0.11527341604232788, -0.14212581515312195, 0.10355516523122787, -0.24785050749778748, -0.23575258255004883, 0.1800108402967453, 0.1634785383939743, 0.03479308262467384, 0.15945465862751007, 0.3027845621109009, 0.007125864736735821, -0.18068434298038483, -0.38050925731658936
-0.005187199916690588, 0.010250577703118324, 0.01439572125673294, 0.011859152466058731, -0.007945319637656212, 0.0070631904527544975, 0.0005410353187471628, -0.0014638621360063553, 0.013783257454633713, 0.009342653676867485, -0.007181406486779451, 0.022121673449873924, -0.006928207818418741, 0.018702998757362366, -0.0045656380243599415, 0.0010375829879194498, 0.014228558167815208, 0.004324972629547119, -0.002891474636271596, -0.007934432476758957, -0.019859494641423225, 0.004206126555800438, 0.021376196295022964, -0.005776382517069578, 0.0020891190506517887, 0.0035825162194669247, -0.004378656856715679, -0.012924596667289734, -0.019292976707220078, 0.002401491394266486, 0.0044004833325743675, 0.016881603747606277, 0.0112595334649086, 0.003923059906810522, -0.004185999743640423, -0.0034537557512521744, -0.008200157433748245, 0.006098729558289051, 0.008466075174510479, -0.0026848255656659603, -0.014867959544062614, -0.015107081271708012, -0.002269173739477992, -0.008106615394353867, 0.005314982961863279, -0.003185886424034834, -0.0019371267408132553, 0.01267410907894373, 0.01331893540918827, 0.002724752062931657, 0.019029740244150162, -0.0032693881075829268, -0.0020343067590147257, -0.0006944651249796152, 0.010082933120429516, -0.01311312522739172, 0.009108384139835835, 0.01222647912800312, 0.004235411528497934, -0.003991834819316864, -0.0046431925147771835, 0.007828798145055771, -0.005835453048348427, -0.014515169896185398, 0.00740443542599678, 0.022233687341213226, 0.003693327307701111, 0.009382904507219791, 0.007447982672601938, 0.004243453498929739, 0.0029895647894591093, 0.0066448780708014965, -0.006063863635063171, 0.002709712367504835, -0.011801512911915779, 0.004795429762452841, -0.005527140572667122, 0.0062095653265714645, -0.011508557014167309, 0.010012523271143436, -0.005437113344669342, 0.009295658208429813, 0.008216327987611294, 0.01604667864739895, 0.006392628885805607, 0.0026179146952927113, 0.016129570081830025, 0.016913555562496185, 0.01878451369702816, -0.007219193037599325, 0.011318390257656574, -0.005807423498481512, 0.0014871020102873445, 0.008117872290313244, 0.011225428432226181, 0.0003276359639130533, -0.0029531323816627264, 0.0006622225628234446, 0.002258294029161334, 7.783278852002695e-05
-0.2681463360786438, -0.32270297408103943, 0.09811124950647354, -0.1477910578250885, 0.05052128806710243, -0.16961370408535004, -0.38776570558547974, 0.0964849442243576, 0.16521303355693817, 0.3541560769081116, 0.05129820853471756, 0.026141416281461716, 0.5104532837867737, 0.2302514612674713, -0.36739641427993774, -0.27663514018058777, -0.010715875774621964, 0.0750962346792221, -0.12257624417543411, -0.5262237787246704, -0.047958146780729294, -0.2746120095252991, -0.13437795639038086, 0.1743864119052887, 0.20861952006816864, 0.2753894031047821, 0.06956201791763306, 0.10996266454458237, 0.11049163341522217, 0.028568975627422333, 0.18838810920715332, 0.0179937481880188, -0.40062880516052246, 0.003063748823478818, 0.062467675656080246, -0.1863647699356079, 0.28208303451538086, -0.19873176515102386, -0.1203862726688385, -0.04419247806072235, -0.14798800647258759, 0.5398169755935669, -0.5628511309623718, -0.22073028981685638, -0.10289120674133301, -0.19719061255455017, -0.1681753396987915, 0.27676835656166077, -0.42245060205459595, 0.4984076917171478, -0.16175048053264618, 0.07359182834625244, 0.03534867614507675, 0.23674191534519196, 0.21011188626289368, 0.05031101405620575, 0.35473066568374634, -0.3258349299430847, 0.017213836312294006, 0.23719161748886108, 0.11188795417547226, -0.3474111258983612, -0.09662146866321564, -0.13883957266807556, 0.32715293765068054, 0.2078748345375061, 0.33535122871398926, 0.13783545792102814, 0.44081732630729675, -0.11486424505710602, 0.2530236542224884, 0.30475834012031555, -0.20323064923286438, -0.27300697565078735, 0.07281213253736496, -0.19919399917125702, 0.026473546400666237, 0.038847267627716064, -0.054515961557626724, 0.11921093612909317, -0.17867188155651093, -0.034791525453329086, 0.5027899742126465, 0.36453941464424133, 0.2984177768230438, -0.012162735685706139, -0.09247512370347977, -0.13494527339935303, 0.352250874042511, -0.2521122097969055, -0.30831223726272583, 0.5296096801757812, 0.20760150253772736, -0.24193529784679413, -0.1844736933708191, -0.01990501768887043, 0.16806423664093018, 0.3057651221752167, -0.24598991870880127, 0.2945080101490021
0.29762956500053406, 0.3028307557106018, -0.19838079810142517, 0.029748132452368736, 0.45601096749305725, 0.8212891817092896, 0.2045654058456421, 0.31982073187828064, -0.5888985395431519, -0.6872560977935791, -0.5542080402374268, 0.668243408203125, -0.1295228749513626, -0.3919129967689514, -0.3771657645702362, 0.11993355304002762, 0.18273669481277466, -0.07114522904157639, -0.04008204862475395, 0.2598753571510315, 0.1909974217414856, -0.4193655252456665, -0.7504943013191223, -0.13537640869617462, 0.3406572639942169, 0.09175872802734375, -0.16102616488933563, 0.46084749698638916, -0.19370968639850616, -0.28006741404533386, 0.3087313771247864, -0.44040805101394653, -0.5539754033088684, 0.16124999523162842, -0.40879300236701965, -0.9697005748748779, -0.05889345332980156, -0.3638969361782074, 0.6718531250953674, 0.5355291962623596, 0.12060212343931198, 0.680463969707489, -0.010167434811592102, 0.30210354924201965, -0.5597078800201416, -0.2131074219942093, -0.5819510817527771, -0.4969938397407532, -0.09778882563114166, -0.2681519091129303, 0.22660887241363525, -0.1122937873005867, -0.35623523592948914, 0.17179608345031738, -0.5701219439506531, -0.8393581509590149, -0.3898669183254242, -0.0742611512541771, -0.3089562952518463, 0.16445286571979523, 0.4608120620250702, 0.5072882771492004, -0.3114028871059418, 0.2509169578552246, 0.09923873096704483, -0.9465175867080688, -0.11455567181110382, -0.0024988208897411823, 0.2808097302913666, 0.2685052752494812, -0.061682723462581635, 0.4263148605823517, 0.3008700907230377, 0.3381929397583008, 0.32816779613494873, -0.49298107624053955, 0.30822378396987915, -0.6335563659667969, 0.25420045852661133, -0.7270603179931641, 0.5581693649291992, 0.40658026933670044, -0.32086876034736633, -0.03164590522646904, 0.31644684076309204, 0.16824257373809814, 0.2416447252035141, 0.1542661041021347, 0.035098206251859665, -0.0010694003431126475, 0.5171067714691162, 0.019919153302907944, 0.2093046009540558, -0.3140784800052643, -0.009043226949870586, 0.028829090297222137, 0.6800435185432434, 0.23352564871311188, 0.12835875153541565, 0.06995000690221786
0.027213001623749733, 0.16685271263122559, -0.028665238991379738, 0.311700701713562, -0.07101047784090042, 0.20235465466976166, 0.09901946783065796, -0.13899564743041992, -0.27292323112487793, -0.1890428215265274, 0.09133623540401459, 0.12094411998987198, -0.11449931561946869, 0.07701321691274643, -0.3851777911186218, 0.2564581036567688, 0.08328956365585327, -0.06440884619951248, 0.23824875056743622, -0.10272437334060669, -0.043994300067424774, 0.32595115900039673, 0.15208688378334045, 0.005620202049612999, 0.0737244114279747, 0.008795354515314102, -0.01598658598959446, 0.181087464094162, 0.28494003415107727, -0.18169794976711273, 0.6040052771568298, -0.2817034423351288, 0.5713313221931458, -0.036216363310813904, 0.13857828080654144, 0.41247618198394775, -0.09187253564596176, 0.07406765222549438, 0.14281703531742096, -0.2045740783214569, 0.05942697077989578, -0.13007599115371704, 0.1985204666852951, 0.022787725552916527, -0.09097389131784439, 0.19445812702178955, -0.05468109995126724, -0.0930347591638565, 0.4528800845146179, 0.12421625852584839, -0.08996441215276718, 0.11424294114112854, 0.08081375062465668, -0.20481403172016144, 0.18849249184131622, -0.46081292629241943, -0.13761265575885773, 0.048961564898490906, -0.01794484071433544, -0.1751878708600998, 0.2012542188167572, -0.21098539233207703, 0.1936730444431305, 0.009466463699936867, 0.11280061304569244, 0.1444324553012848, 0.13460363447666168, -0.3384888768196106, 0.0525527223944664, -0.10048860311508179, -0.12989957630634308, 0.32418814301490784, 0.21405889093875885, -0.030231069773435593, 0.2655739188194275, -0.05460997670888901, 0.18658067286014557, -0.2564072608947754, 0.16888760030269623, -0.05380278825759888, -0.4336261451244354, -0.05690548196434975, -0.10816726833581924, 0.09048009663820267, -0.26242250204086304, 0.1909903734922409, 0.1474236249923706, -0.042575493454933167, 0.07995196431875229, -0.22950199246406555, 0.2601768970489502, -0.2475232630968094, 0.023881908506155014, -0.11199655383825302, -0.0839860662817955, -0.12944908440113068, 0.15978237986564636, -0.21497318148612976, 0.07035751640796661, -0.0035294124390929937
-0.24321912229061127, -0.6351833343505859, -0.07257288694381714, -0.022694675251841545, -0.016296887770295143, -0.1969645619392395, 0.5160831809043884, -0.06454866379499435, 0.4303915500640869, -0.2645312547683716, 0.06401639431715012, -0.12020011991262436, 0.16725988686084747, -0.30874747037887573, -0.09563980251550674, -0.00996054895222187, 0.20858624577522278, -0.06932679563760757, 0.3937022387981415, 0.222230464220047, 0.28487640619277954, -0.6193196773529053, -0.3227823078632355, 0.1239859014749527, 0.07983247935771942, 0.3521880805492401, -0.35229113698005676, 0.190979465842247, 0.2566845118999481, -0.2648264467716217, 0.057564765214920044, -0.0753571018576622, 0.24975727498531342, -0.10098733752965927, -0.5495991110801697, -0.10372418910264969, 0.20763950049877167, -0.4168608486652374, -0.22415317595005035, 0.105577751994133, 0.06249409168958664, 0.2739713191986084, 0.1016933023929596, 0.4994156062602997, -0.013462373986840248, 0.5422171950340271, -0.8410132527351379, 0.017080258578062057, 0.45840921998023987, 0.3558359444141388, 0.16294550895690918, -0.0929294228553772, 0.6249898076057434, -0.13072362542152405, -0.15843285620212555, 0.42569753527641296, -0.09831328690052032, -0.41485971212387085, -0.1341239959001541, -0.03908292576670647, 0.06049899384379387, 0.07420232892036438, -0.261993408203125, -0.19182348251342773, -0.03889986127614975, -0.37195178866386414, -0.348614901304245, -0.20999811589717865, -0.18166571855545044, -0.05388239771127701, -0.2552626430988312, 0.3142351806163788, 0.11026307940483093, 0.14858339726924896, 0.27787381410598755, -0.0870790034532547, 0.41690436005592346, -0.03516693785786629, 0.4084453284740448, -0.23079216480255127, 0.18485146760940552, 0.4416235685348511, -0.08196794241666794, 0.14697423577308655, -0.24650536477565765, -0.012217787094414234, -0.054419245570898056, -0.029485046863555908, 0.1980203092098236, -0.2429506480693817, -0.10606103390455246, 0.0010442121420055628, 0.14725418388843536, 0.17752249538898468, -0.1252739429473877, 0.6811893582344055, -0.00012158838217146695, 0.1759428232908249, 0.3036994934082031, 0.6978170275688171
-0.45747992396354675, -0.029020899906754494, -0.3379609286785126, 0.43864837288856506, -0.03828253224492073, 0.2919962704181671, 0.34907469153404236, -0.01579245738685131, 0.1849268227815628, 0.03111150860786438, -0.003755999496206641, 0.1995156705379486, 0.5212202668190002, 0.058629319071769714, -0.09787669032812119, -0.0057875020429492, -0.09085703641176224, -0.2802380323410034, -0.3351283371448517, 0.1490243673324585, 0.3912124037742615, 0.09563654661178589, 0.3341614007949829, -0.11322430521249771, -0.036041922867298126, 0.6990815997123718, 0.018021676689386368, -0.13414864242076874, 0.3897564709186554, 0.025676650926470757, 0.4130299985408783, -0.16013947129249573, -0.0881558433175087, -0.046107638627290726, 0.2323368489742279, 0.01891886629164219, -0.5975199937820435, 0.12464286386966705, 0.23655539751052856, 0.034612804651260376, 0.1688656359910965, -0.37979474663734436, -0.1395835280418396, -0.2836114168167114, -0.32102593779563904, 0.2630704343318939, 0.08202728629112244, -0.281857967376709, 0.0028813735116273165, 0.011409127153456211, -0.1473633050918579, -0.19553056359291077, 0.4170253574848175, 0.19907855987548828, 0.2888391315937042, 0.23442627489566803, 0.12691377103328705, 0.15641823410987854, 0.6012704372406006, -0.3395405411720276, 0.056989919394254684, -0.02158590964972973, 0.5362889170646667, -0.0031548538245260715, 0.08534958958625793, -0.14937442541122437, -0.43208107352256775, -0.14766435325145721, -0.03901807591319084, 0.04224081337451935, 0.04711287096142769, -0.3110441565513611, 0.22115527093410492, -0.02306467480957508, 0.005571175832301378, -0.014771434478461742, 0.19243186712265015, 0.33952951431274414, 0.023211808875203133, -0.023811394348740578, -0.0317535325884819, -0.04784078150987625, 0.07434356957674026, 0.041749220341444016, -0.26188287138938904, 0.15704505145549774, 0.5483788251876831, -0.09181666374206543, 0.19587503373622894, 0.17458480596542358, -0.013187418691813946, -0.3819047808647156, 0.14057372510433197, 0.13624882698059082, 0.1075558289885521, 0.1942715346813202, 0.038505930453538895, 0.29162275791168213, -0.021544691175222397, -0.3171066641807556
-0.4688267111778259, 0.023441089317202568, -0.5581673979759216, 0.5540385842323303, -0.29931649565696716, 0.05794065445661545, -0.016579050570726395, 0.3576590418815613, 0.5440268516540527, 0.04657687246799469, -0.3381871283054352, -0.14799003303050995, 0.09877446293830872, 0.034790847450494766, 0.39724209904670715, -0.5078866481781006, -0.3671276867389679, -0.2749101221561432, -0.10181165486574173, 0.3729908764362335, 0.030402783304452896, -0.52418452501297, 0.557354211807251, -0.12037362903356552, 0.2677902579307556, -0.010405081324279308, -0.23740248382091522, 0.5181887745857239, 0.5965445637702942, 0.018803512677550316, -0.5527457594871521, -0.5540130138397217, -0.34614744782447815, 0.019173413515090942, 0.34868520498275757, -0.05019359663128853, 0.5219176411628723, -0.19328194856643677, 0.2044917196035385, -0.4914247393608093, -0.5660609006881714, 0.13889749348163605, 0.4555506706237793, -0.2903691530227661, -0.10818206518888474, -0.38750216364860535, 0.4007214605808258, -0.5867533683776855, -0.4750306010246277, -0.36806121468544006, -0.24306471645832062, 0.43723905086517334, -0.030010541900992393, 0.2971227765083313, -0.2653754949569702, 0.30041372776031494, 0.3690902292728424, -0.08338164538145065, -0.12975770235061646, -0.21418675780296326, 0.18415643274784088, 0.0976998507976532, -0.2643008232116699, 0.08401135355234146, 0.36224278807640076, 0.44287946820259094, -0.2553388774394989, 0.3497377932071686, -0.01741243526339531, 0.12204305827617645, -0.20965690910816193, 0.43866148591041565, -0.28144654631614685, 0.11441729962825775, 0.2901182472705841, 0.19048520922660828, -0.13904888927936554, -0.3414737582206726, 0.4328801929950714, -0.10911859571933746, -0.15003252029418945, -0.3382194936275482, -0.07850871980190277, 0.20559430122375488, 0.2714982330799103, -0.35110169649124146, 0.10515286028385162, -0.15094222128391266, 0.14762236177921295, 0.3203337788581848, 0.018639741465449333, 0.2956914007663727, -0.12362390756607056, -0.1909438967704773, -0.19243364036083221, -0.004358954261988401, 0.3185858130455017, 0.349478542804718, -0.15512028336524963, 0.3622185289859772
0.4009706377983093, 0.19014380872249603, -0.09184620529413223, 0.5483520030975342, 0.511891782283783, -0.7639645934104919, 0.14105232059955597, 0.021985553205013275, 0.1169205978512764, 0.21735502779483795, 0.13333287835121155, 0.136883944272995, -0.9936128258705139, -0.794623076915741, 0.4190700054168701, 0.5545792579650879, -0.11647798866033554, 0.5868517160415649, -0.11188054829835892, 0.0012683998793363571, 0.22693660855293274, 0.5615293383598328, 0.1513088047504425, 0.09834298491477966, -0.21400287747383118, 0.4904911518096924, 0.586008608341217, 0.004527741111814976, 0.5540364384651184, -0.13623769581317902, -0.26731371879577637, 0.05439400672912598, 0.029598167166113853, 0.48623019456863403, 0.2900623679161072, -0.13439185917377472, -0.6451929211616516, -0.14879007637500763, 0.6467074751853943, -0.03658750280737877, 0.0472065694630146, -0.17396630346775055, -0.4270654320716858, -0.13155296444892883, -0.07433263212442398, 0.3543834984302521, -0.023363376036286354, -0.07814206928014755, 0.037502314895391464, -0.4266025125980377, 0.5667091608047485, -0.4893251359462738, 0.7934821844100952, 0.023103367537260056, 0.2523569166660309, 0.49024900794029236, -0.3877883553504944, -0.12544560432434082, 0.2997943162918091, -0.14342348277568817, 0.0017194790998473763, 0.5486264824867249, 0.709559440612793, 0.04618021845817566, -0.07986314594745636, -0.23698726296424866, 0.782187283039093, -0.00820067897439003, 0.5009979605674744, -0.25734642148017883, 0.18129460513591766, 0.24276091158390045, 0.3931802213191986, 0.09995588660240173, 0.4856775403022766, 0.1233416497707367, -0.3810540437698364, 0.007191400974988937, 0.7686398029327393, -0.041525520384311676, 0.24488908052444458, 0.0963074117898941, 0.09989744424819946, -0.47313326597213745, -0.02273133210837841, -0.3754037618637085, 0.1393871307373047, 0.10511769354343414, 0.20271505415439606, -0.03736625611782074, -0.28694814443588257, -0.06434157490730286, -0.5351327657699585, 0.5420376062393188, 0.16160514950752258, -0.09227906167507172, 0.7384447455406189, -0.6425117254257202, -0.5604772567749023, 0.4688791036605835
-0.19324293732643127, -0.4158845841884613, 0.21621544659137726, 0.40792715549468994, 0.3453805446624756, 0.29437822103500366, -0.0615512877702713, 0.2239273637533188, -0.0711432695388794, 0.07596994936466217, -0.20447799563407898, -0.2686016857624054, -0.3454897999763489, -0.4417968988418579, -0.410867840051651, -0.1536499559879303, 0.43844735622406006, -0.0842442512512207, 0.9985077977180481, 0.07108818739652634, 0.22644983232021332, 0.30995890498161316, 0.6970759034156799, 0.0751480758190155, 0.5001029372215271, -0.22226469218730927, 0.7786519527435303, -0.01091753225773573, 0.038219865411520004, -0.19078651070594788, -1.0118528604507446, -0.17692382633686066, 0.7941194772720337, 0.16444985568523407, 0.29716598987579346, 0.7103949189186096, 0.10323932766914368, -0.41681772470474243, -0.0033956526312977076, 0.0101944450289011, -0.06399883329868317, -0.41644397377967834, 0.21835744380950928, -0.1543547809123993, -0.1908199042081833, -0.07098665833473206, 0.13415277004241943, 0.4644309878349304, 0.2530924677848816, -0.29654327034950256, 0.12851645052433014, -0.12290533632040024, 0.36645472049713135, -0.04691973701119423, -0.16519150137901306, -0.1961170881986618, 0.7585594654083252, 0.4158090054988861, -0.019509660080075264, -0.18076322972774506, -0.08402937650680542, 0.012000077404081821, -0.292269766330719, 0.5152077078819275, 0.023245347663760185, -0.020538492128252983, -0.21419942378997803, -0.23035885393619537, -0.356825053691864, -0.5915091037750244, -0.1940239667892456, 0.09297078102827072, -0.20969733595848083, 0.682616114616394, -0.13637390732765198, -0.33556097745895386, -0.06736692786216736, -0.29795441031455994, -0.39679351449012756, -0.195651575922966, -0.07431814819574356, 0.3390609622001648, -0.2541190981864929, 0.6638155579566956, -0.4135681092739105, 0.29402080178260803, -0.6542487144470215, -0.1821437031030655, 0.7858090400695801, 0.32502397894859314, -0.15311717987060547, -0.01663871295750141, -0.7011048197746277, 0.28617069125175476, 0.5532306432723999, 0.033915791660547256, 0.21947136521339417, 0.269052654504776, -0.32558590173721313, 0.37362879514694214
0.25704365968704224, -0.22599394619464874, 0.2369461953639984, 0.43922552466392517, -0.2728482782840729, 0.1441103219985962, -0.6031305193901062, 0.05658464506268501, -0.42814764380455017, 0.2149084061384201, -0.05990811437368393, -0.35828855633735657, -0.09805485606193542, 0.3456842005252838, -0.014056540094316006, -0.05726836994290352, 0.23188436031341553, -0.3311828076839447, 0.6009204983711243, -0.13343963027000427, 0.11074957996606827, -0.20926658809185028, -0.33433032035827637, 0.2712491750717163, 0.23102448880672455, -0.24371176958084106, -0.09769265353679657, -0.5554631948471069, 0.21659481525421143, -0.17296865582466125, 0.2729007303714752, -0.06279440224170685, -0.3388049900531769, 0.14558574557304382, -0.15052539110183716, 0.22127048671245575, -0.6915202736854553, 0.39780524373054504, 0.19936791062355042, -0.04303590953350067, -0.4313414692878723, -0.41600361466407776, -0.43183234333992004, -0.18027742207050323, 0.0013046307722106576, 0.35434386134147644, -0.1571042537689209, 0.12294739484786987, 0.45054182410240173, 0.010146099142730236, -0.39601990580558777, -0.12189315259456635, -0.1497427374124527, -0.39115405082702637, -0.21800653636455536, -0.6585978269577026, -0.19155780971050262, -0.14201295375823975, 0.21316437423229218, -0.10658024251461029, -0.100790835916996, -0.3823006749153137, 0.3293903172016144, -0.2646231949329376, 0.09118977189064026, -0.08825308084487915, -0.09463166445493698, -0.4281674921512604, 0.061700690537691116, 0.2653774321079254, 0.42836469411849976, -0.03495027869939804, -0.24508178234100342, 0.27605485916137695, 0.01298033632338047, -0.040587179362773895, -0.5171064138412476, 0.02053959295153618, 0.4450322985649109, 0.1536267250776291, -0.25057587027549744, 0.04171784594655037, 0.08646497130393982, 0.45584267377853394, -0.3421165347099304, -0.06665915995836258, -0.052057892084121704, 0.5692477822303772, 0.41504624485969543, 0.30862152576446533, -0.1524500995874405, -0.19045597314834595, -0.09670047461986542, -0.2834424376487732, -0.5575658082962036, -0.03561190888285637, -0.21845632791519165, -0.4827464818954468, 0.3878272771835327, 0.07773250341415405
-0.1695874184370041, -0.08447543531656265, -0.09230975061655045, 0.13559049367904663, 0.1036207377910614, 0.11572198569774628, 0.10742950439453125, -0.16245344281196594, -0.20504824817180634, -0.40340784192085266, -0.042015206068754196, -0.30015236139297485, -0.1416338086128235, -0.21251538395881653, 0.10660140216350555, 0.2297315150499344, -0.3965635597705841, -0.15236671268939972, -0.04739783704280853, 0.2656538784503937, -0.07463691383600235, -0.029341693967580795, -0.4208957552909851, -0.13573916256427765, 0.0864952877163887, 0.02254173904657364, -0.07640841603279114, -0.2629903256893158, 0.5506853461265564, 0.28178393840789795, -0.09366115182638168, 0.5527632832527161, -0.40936338901519775, 0.06472239643335342, -0.2738441824913025, -0.08900462836027145, -0.16676878929138184, 0.3220946490764618, 0.10915706306695938, 0.27675798535346985, -0.06925119459629059, -0.17169182002544403, 0.22622017562389374, -0.10551188886165619, 0.20662103593349457, -0.2649352550506592, 0.08755900710821152, 0.27614912390708923, -0.7181770205497742, -0.1381879299879074, 0.42388227581977844, -0.05341562256217003, 0.12322426587343216, 0.37458276748657227, -0.03862283378839493, -0.23944155871868134, -0.15455113351345062, 0.023305140435695648, -0.030891859903931618, 0.25316861271858215, -0.09415430575609207, -0.42166075110435486, 0.2938386797904968, -0.10637107491493225, -0.06374270468950272, 0.1412096470594406, -0.5434266924858093, -0.1599092036485672, -0.05191083624958992, -0.055979445576667786, -0.02032093144953251, -0.014175503514707088, -0.08868779987096786, 0.20625770092010498, 0.19979806244373322, -0.3803767263889313, 0.23491187393665314, -0.2760254442691803, -0.20504432916641235, -0.1564551442861557, -0.286169171333313, -0.4422106146812439, -0.09833364188671112, -0.15556520223617554, -0.31981536746025085, 0.10352165997028351, -0.02060389705002308, 0.09479294717311859, -0.18772660195827484, 0.09036356955766678, 0.14910034835338593, 0.004498678725212812, 0.07735417783260345, -0.43335410952568054, -0.16444160044193268, -0.3018535077571869, -0.3563537895679474, 0.14638100564479828, 0.18084996938705444, -0.520997941493988
0.2584787607192993, 0.15965375304222107, -0.2773735523223877, 0.21426323056221008, 0.22186273336410522, 0.27435633540153503, -0.43675345182418823, 0.12787187099456787, -0.3364957869052887, -0.4660511314868927, -0.09806794673204422, -0.15835395455360413, 0.2635449171066284, 0.03079453483223915, -0.1730666309595108, -0.3158879280090332, -0.12621381878852844, 0.3569456934928894, 0.029733456671237946, 0.1782076209783554, 0.3568859100341797, -0.23787157237529755, 0.37648871541023254, 0.06735256314277649, -0.3428586423397064, 0.28420373797416687, 0.21011896431446075, 0.26573148369789124, 0.5992406606674194, 0.1449706107378006, 0.14071393013000488, -0.031744636595249176, 0.509469747543335, -0.582474410533905, 0.042333539575338364, 0.1796681135892868, 0.14569057524204254, 0.2102743536233902, 0.44485950469970703, -0.3247007429599762, -0.0187932550907135, -0.4196387231349945, 0.22216269373893738, -0.09645126014947891, -0.049426544457674026, -0.006273399107158184, -0.36058831214904785, 0.11114806681871414, -0.31126919388771057, 0.376176655292511, -0.3918285071849823, -0.21302445232868195, -0.03125055506825447, -0.35281938314437866, -0.4562303423881531, -0.2856490910053253, 0.37630710005760193, -0.019657587632536888, 0.5045316219329834, -0.05179024860262871, 0.07317300140857697, 0.2461659461259842, -0.07808747887611389, 0.1532672941684723, 0.15778353810310364, 0.373688668012619, -0.30075693130493164, 0.11217747628688812, 0.3291260302066803, 0.24574603140354156, 0.08610374480485916, -0.18157869577407837, 0.245935320854187, -0.12574192881584167, -0.3539293110370636, 0.3095293939113617, -0.21807502210140228, 0.235337033867836, -0.11884728819131851, -0.20298485457897186, -0.08171702921390533, -0.2728636562824249, 0.011790186166763306, -0.4461747407913208, 0.4026564955711365, 0.23797306418418884, 0.19978810846805573, -0.5574598908424377, -0.46767741441726685, 0.08489599823951721, -0.02905890718102455, -0.3201630413532257, 0.5507733821868896, 0.6923785209655762, -0.23972706496715546, 0.049906618893146515, 0.650587797164917, 0.18438565731048584, -0.16828185319900513, -0.17157317698001862
0.10379687696695328, 0.1342960000038147, -0.263579398393631, 0.28420892357826233, -0.49744102358818054, -0.027973849326372147, 0.38138431310653687, -0.2887781262397766, -0.16329921782016754, -0.07870980352163315, 0.6719837188720703, 0.07857181876897812, -0.03756304085254669, -0.06491728872060776, 0.2565852403640747, 0.1333935409784317, 0.37416133284568787, -0.10737445950508118, -0.10092360526323318, -0.22924253344535828, 0.20502828061580658, 0.2801204025745392, 0.32273733615875244, 0.15155687928199768, -0.2356398105621338, -0.10946539044380188, 0.2737215459346771, 0.09779742360115051, 0.2682334780693054, 0.2835160195827484, -0.37112510204315186, 0.03142033517360687, 0.18715542554855347, 0.06532616913318634, 0.1363813579082489, -0.06624448299407959, 0.3085288405418396, 0.05850100517272949, 0.04319721832871437, 0.12050405889749527, 0.37152618169784546, 0.15841324627399445, 0.0044777533039450645, -0.1058247908949852, 0.027116715908050537, -0.1596316248178482, 0.15540041029453278, -0.20829391479492188, 0.0765664204955101, 0.3143462836742401, 0.02163558639585972, 0.19035665690898895, 0.09354577213525772, 0.3812759816646576, 0.21479813754558563, 0.2169378250837326, 0.0009786374866962433, 0.39425480365753174, -0.09592052549123764, -0.02505350671708584, 0.49801120162010193, -0.16091789305210114, -0.01394009031355381, -0.0841134563088417, -0.3174586594104767, 0.10510465502738953, 0.009446901269257069, -0.5062391757965088, 0.2857426702976227, 0.13749343156814575, 0.5075554251670837, -0.027588944882154465, -0.22261452674865723, -0.021808866411447525, -0.14652016758918762, -0.09016916155815125, 0.09086968004703522, 0.07642823457717896, 0.3371228575706482, -0.06884681433439255, 0.10412316024303436, 0.434278279542923, -0.16474342346191406, 0.09348509460687637, 0.1528194397687912, 0.14625364542007446, -0.005842743907123804, 0.01592230424284935, 0.1445320099592209, -0.12909585237503052, -0.09963205456733704, 0.13031069934368134, -0.21412904560565948, -0.49025583267211914, -0.17588895559310913, -0.393379271030426, 0.5508679151535034, -0.5947694182395935, -0.16156983375549316, -0.23137715458869934
-0.20526251196861267, -0.35476237535476685, 0.0518532395362854, -0.24306024610996246, 0.1745166927576065, 0.558961808681488, 0.3031117618083954, 2.4193068384192884e-05, -0.08705729991197586, -0.058597709983587265, -0.07206544280052185, -0.19641105830669403, -0.04236823692917824, 0.11513235419988632, 0.08297371864318848, 0.1892687976360321, 0.20152060687541962, 0.04544064775109291, 0.03291667625308037, -0.3368009924888611, -0.2987307906150818, -0.394162118434906, 0.33555227518081665, 0.13472680747509003, 0.10280698537826538, 0.1804938167333603, -0.20931673049926758, -0.13890425860881805, 0.12356924265623093, 0.005129275843501091, 0.1306053251028061, -0.026056421920657158, 0.1368955671787262, 0.14607851207256317, -0.052189115434885025, 0.23549790680408478, -0.1078287810087204, -0.012313255108892918, -0.324027419090271, -0.04116722196340561, -0.2546161413192749, -0.2237318605184555, 0.045725636184215546, -0.18206146359443665, 0.05974378436803818, -0.1900833547115326, -0.047398582100868225, -0.009892500005662441, -0.1735353171825409, -0.21969740092754364, 0.025715012103319168, -0.016343597322702408, -0.1495400220155716, 0.25592464208602905, -0.23839297890663147, -0.1252058893442154, -0.22004587948322296, 0.35800203680992126, 0.23776033520698547, -0.18392933905124664, 0.00524405250325799, -0.16361385583877563, 0.07144815474748611, -0.2790510356426239, -0.09528053551912308, 0.31886354088783264, -0.19291101396083832, 0.08467665314674377, -0.17057956755161285, -0.0983494445681572, 0.3688119053840637, -0.17975932359695435, 0.0771607831120491, 0.4070540964603424, -0.11097624897956848, -0.12642155587673187, 0.3395753502845764, -0.14173837006092072, -0.043755434453487396, -0.24835048615932465, -0.30318382382392883, 0.048028141260147095, -0.0731702521443367, -0.41224780678749084, -0.34404247999191284, 0.1413441300392151, 0.2764497399330139, -0.22363044321537018, -0.20671172440052032, -0.26929140090942383, -0.36899933218955994, 0.2091798335313797, 0.13502201437950134, 0.2294607162475586, -0.012818165123462677, -0.037333302199840546, 0.0897710844874382, -0.06250638514757156, 0.16413845121860504, -0.15480215847492218
-0.07643618434667587, -0.14981676638126373, -0.23395775258541107, 0.5100451707839966, 0.06904511898756027, 0.11248297244310379, 0.38274532556533813, -0.2461942881345749, -0.11188539862632751, -0.022569438442587852, 0.3690137267112732, 0.14548297226428986, -0.04323912039399147, -0.13440223038196564, -0.42130014300346375, 0.10916498303413391, -0.14566399157047272, -0.1433439999818802, -0.17956897616386414, -0.4016103148460388, -0.09457778930664062, 0.11459295451641083, 0.17017871141433716, -0.3244887590408325, -0.30863329768180847, -0.06851101666688919, -0.026529842987656593, -0.11725591868162155, -0.21881438791751862, 0.05886830389499664, -0.11517620086669922, 0.10650023072957993, -0.01392041239887476, 0.04043880105018616, -0.059886544942855835, 0.3600376546382904, -0.49994221329689026, 0.1736493706703186, 0.11969781666994095, 0.07158088684082031, -0.009833434596657753, -0.035207368433475494, 4.476922913454473e-05, 0.017353752627968788, 0.0895521342754364, 0.163720041513443, 0.23316645622253418, 0.02674316242337227, 0.19418922066688538, -0.3562932312488556, 0.06951207667589188, -0.21327023208141327, 0.4207237660884857, -0.0656423568725586, -0.24344401061534882, -0.3306889832019806, 0.16238358616828918, -0.044956743717193604, 0.18357181549072266, -0.1059810072183609, 0.12651237845420837, -0.1383083611726761, -0.11480600386857986, -0.045131076127290726, 0.004234734922647476, 0.3640693724155426, 0.05371229350566864, 0.06255991756916046, -0.31620436906814575, -0.10677725821733475, -0.20047546923160553, -0.33250749111175537, 0.07170478254556656, 0.14631719887256622, 0.09193280339241028, -0.18138399720191956, -0.0020919872913509607, 0.19669778645038605, 0.07206055521965027, -0.2462937831878662, 0.2983924448490143, 0.048418790102005005, -0.3359782099723816, 0.06455472856760025, 0.033209413290023804, 0.2293698638677597, 0.13517917692661285, -0.31831154227256775, 0.23067665100097656, 0.10379234701395035, 0.36929067969322205, -0.16691900789737701, -0.12089063972234726, 0.07898163795471191, 0.4178371727466583, 0.13270528614521027, -0.13474726676940918, -0.12237400561571121, 0.23541748523712158, -0.11863300204277039
-8.84430410224013e-05, -0.04243241250514984, 0.10507745295763016, -0.08153858035802841, 0.06951894611120224, 0.00019705761224031448, -0.01960720494389534, 0.34262368083000183, -0.2650967836380005, 0.03617104887962341, 0.17801447212696075, -0.13185472786426544, 0.10606838762760162, -0.10256808251142502, -0.2657613754272461, 0.28865495324134827, -0.31517377495765686, 0.19521169364452362, -0.15233635902404785, -0.21724404394626617, 0.5803345441818237, 0.34808647632598877, 0.09685961157083511, 0.07236529886722565, -0.3130030632019043, -0.10285523533821106, 0.007844511419534683, -0.06543239951133728, -0.16022343933582306, -0.0013317095581442118, 0.12430012971162796, -0.010016068816184998, 0.03587476909160614, -0.2031702995300293, 0.07522912323474884, 0.07168570905923843, -0.3713732063770294, 0.04374710097908974, -0.16099867224693298, 0.10308152437210083, -0.24867327511310577, 0.33085134625434875, 0.10483618825674057, 0.18271149694919586, 0.22817015647888184, 0.24081191420555115, -0.22597165405750275, -0.5190259218215942, -0.12050697952508926, -0.16565823554992676, -0.23365704715251923, -0.03310418874025345, 0.13340122997760773, -0.07786844670772552, 0.15939147770404816, -0.19560696184635162, 0.3012848496437073, -0.24910831451416016, 0.38382983207702637, 0.3817339539527893, -0.03875825181603432, 0.22935621440410614, -0.07685411721467972, -0.06934738904237747, 0.07027309387922287, 0.20183312892913818, 0.06108926236629486, -0.150166317820549, 0.08954017609357834, -0.08871318399906158, 0.21053214371204376, 0.02408936619758606, 0.14467041194438934, 0.041805896908044815, 0.07415220141410828, -0.00400293804705143, 0.050261836498975754, -0.02055635303258896, -0.1911838948726654, -0.12138506025075912, -0.0650123655796051, 0.04915855824947357, 0.12494238466024399, 0.025193242356181145, 0.26388871669769287, 0.2120649218559265, 0.2779223620891571, 0.17831195890903473, 0.044776905328035355, -0.1821175068616867, 0.21744096279144287, -0.2929007411003113, 0.3140847086906433, -0.28211429715156555, 0.14721910655498505, -0.09804553538560867, -0.43262678384780884, 0.5120127201080322, 0.014775621704757214, 0.0784376934170723
-0.4577343761920929, 0.23698687553405762, -0.3034135699272156, 0.027990804985165596, 0.2162165343761444, -0.15831154584884644, 0.2998689115047455, -0.7348448634147644, 0.37228041887283325, 0.14333635568618774, -0.12672527134418488, 0.05217428505420685, -0.4284110367298126, -0.0738251805305481, 0.482685923576355, 0.18749305605888367, -0.48005929589271545, 0.0523376390337944, -0.21586455404758453, -0.08832161128520966, -0.11373397707939148, 0.5732254981994629, 0.0036020642146468163, -0.7421263456344604, 0.024146893993020058, -0.037391547113657, -0.202602818608284, -0.5321125984191895, 0.1671493798494339, 0.4347679316997528, -0.07675367593765259, 0.799928605556488, 0.18293403089046478, -0.01582852564752102, 0.6340857744216919, 0.9241900444030762, 0.046990372240543365, 0.4383191764354706, -0.0021715497132390738, 0.17640049755573273, -0.45863425731658936, 0.14718127250671387, -0.25508183240890503, -0.15391677618026733, 0.03289726376533508, -0.026419747620821, -0.17826950550079346, -0.1595720797777176, 0.34560903906822205, -0.5137548446655273, -0.05854840204119682, -0.33371701836586, -0.2008819282054901, 0.2433357536792755, 0.5422799587249756, -0.29664966464042664, -0.17023965716362, 0.6251967549324036, -0.22971703112125397, -0.11350073665380478, 0.25801217555999756, -0.03458646312355995, -0.6606204509735107, 0.011837839148938656, 0.10366072505712509, -0.21888363361358643, 0.384607195854187, 0.03561229258775711, -0.8343918323516846, 0.18903814256191254, -0.20153629779815674, 0.375058114528656, -0.2699207067489624, -0.8047271370887756, 0.3687708079814911, -0.09173976629972458, -0.06325147300958633, 0.5499023795127869, -0.29256075620651245, 0.2417798936367035, 0.1585102677345276, -1.3526537418365479, -0.4083918631076813, 0.08355483412742615, 0.1327134221792221, -0.304627388715744, -0.2776758372783661, 0.11290968954563141, 0.5273287892341614, 0.15173646807670593, 0.3454406261444092, 0.4142208397388458, -0.17511314153671265, 0.20535452663898468, -0.18063542246818542, -0.050354965031147, 0.10119501501321793, -0.40863236784935, -0.2449028342962265, 0.4213073253631592
-0.39904412627220154, 0.23528549075126648, -0.33027058839797974, -0.748794436454773, 0.07219869643449783, -0.4450080096721649, 0.5206248760223389, 0.09696915745735168, -0.2772781550884247, -0.23508158326148987, -0.3953438103199005, 0.05187135934829712, -0.038690149784088135, 0.44216933846473694, 0.31445515155792236, 0.22088196873664856, -0.021670423448085785, 0.0017053380142897367, 0.09441591054201126, -0.19725187122821808, 0.10596807301044464, 0.20530565083026886, 0.48846617341041565, -0.40238478779792786, -0.043982308357954025, 0.006558261811733246, -0.31764352321624756, -0.19707365334033966, -0.28088992834091187, 0.16821078956127167, -0.058108940720558167, 0.11211667954921722, -2.3948727175593376e-05, -0.37223538756370544, 0.1875782459974289, 0.010825200006365776, 0.020645368844270706, 0.13094082474708557, -0.13104122877120972, -0.48009270429611206, -0.13590316474437714, -0.2910691499710083, -0.28031718730926514, -0.20962528884410858, -0.02798968367278576, -0.12555599212646484, -0.02386648766696453, -0.012437449768185616, 0.09917296469211578, -0.05538073927164078, 0.3923737704753876, 0.0581870898604393, 0.03587782382965088, 0.05141328647732735, 0.21338343620300293, 0.3359856903553009, 0.05856204405426979, 0.03079364262521267, -0.39051738381385803, -0.4110061228275299, -0.07940078526735306, -0.09046053886413574, 0.022990500554442406, 0.13320501148700714, -0.03226109594106674, 0.21722804009914398, 0.0823904350399971, 0.18765023350715637, -0.20988504588603973, -0.3896852135658264, 0.33115750551223755, 0.07055111974477768, 0.341760516166687, -0.3496669828891754, 0.08977971971035004, -0.13067710399627686, -0.011461676098406315, 0.3262091875076294, 0.006117179989814758, -0.44682979583740234, -0.04112059995532036, -0.058562472462654114, 0.4876645803451538, 0.0470353439450264, 0.11725123971700668, -0.26884594559669495, -0.13149939477443695, 0.030413910746574402, 0.34983161091804504, 0.25645628571510315, 0.2814430296421051, 0.05733533576130867, 0.3791300356388092, -0.2965378165245056, 0.19659371674060822, 0.041356805711984634, -0.20384563505649567, 0.006779033690690994, 0.3306540846824646, -0.03639662638306618
0.35670965909957886, -0.08588407933712006, 0.14111186563968658, -0.15085190534591675, -0.37402963638305664, 0.1626429259777069, -0.17058920860290527, 0.31889477372169495, 0.0010214715730398893, -0.0903107151389122, 0.21529462933540344, 0.2277296930551529, -0.2393563687801361, -0.4548707604408264, -0.06088006868958473, -0.3169032037258148, -0.0020437128841876984, -0.07919777184724808, 0.045225903391838074, 0.11502441763877869, 0.5234798192977905, -0.14103834331035614, -0.3214254379272461, 0.6721481084823608, 0.11714035272598267, -0.07749178260564804, -0.35571926832199097, -0.406244158744812, 0.37135180830955505, 0.28010445833206177, 0.18704062700271606, 0.214914932847023, -0.36745649576187134, -0.5140334367752075, -0.2473881095647812, 0.1526525318622589, 0.0004846350057050586, 0.3555409014225006, 0.022375989705324173, 0.11719967424869537, -0.0008937546517699957, 0.41953983902931213, 0.01760486699640751, -0.21600757539272308, 0.46652108430862427, -0.4289909601211548, -0.5018476247787476, 0.02827439457178116, -0.32611292600631714, -0.2657915949821472, 0.020492471754550934, 0.13362249732017517, -0.3488699197769165, -0.056461676955223083, 0.32130593061447144, -0.04151304438710213, 0.10175489634275436, 0.00397075992077589, -0.19112376868724823, 0.012217841111123562, 0.23068462312221527, 0.1316923350095749, 0.14772462844848633, 0.04799569770693779, 0.4955289661884308, -0.05170733481645584, -0.1425989270210266, -0.059042688459157944, 0.06489082425832748, 0.13066543638706207, 0.22885875403881073, -0.08068251609802246, 0.23110917210578918, -0.0358886681497097, -0.024122368544340134, -0.43229877948760986, 0.3976120948791504, -0.3040113151073456, 0.09436509013175964, -0.29286500811576843, 0.13348153233528137, 0.3306521475315094, -0.058857809752225876, -0.03211180120706558, -0.37594151496887207, -0.24105866253376007, -0.3806004822254181, 0.05697546899318695, 0.06800563633441925, 0.22269876301288605, 0.011058765463531017, 0.06681756675243378, 0.4252428412437439, -0.3857263922691345, -0.29224157333374023, -0.03503260388970375, 0.12346979975700378, 0.2051662802696228, -0.10505610704421997, 0.023955898359417915
0.6505599617958069, 0.23219269514083862, 0.2372458279132843, 0.04858669638633728, -0.03540105000138283, 0.25844529271125793, -0.3395848870277405, -0.1930067539215088, 0.1191958412528038, 0.18530608713626862, -0.3503749966621399, -0.18707893788814545, -0.06368865072727203, 0.16654762625694275, -0.18570315837860107, -0.21613244712352753, -0.10112772136926651, 0.31763485074043274, 0.1314062923192978, 0.1388125866651535, 0.10862133651971817, -0.3225632607936859, -0.1343519389629364, 0.10693515837192535, -0.026335205882787704, 0.06746944785118103, 0.09207355231046677, 0.051294922828674316, 0.08084863424301147, 0.1481003612279892, -0.32914820313453674, -0.22456450760364532, -0.12517112493515015, 0.2580793499946594, 0.30672967433929443, 0.1316521167755127, -0.10104284435510635, 0.35724496841430664, -0.29255151748657227, -0.27732616662979126, -0.2952512502670288, -0.11460991948843002, 0.023976247757673264, -0.3195231258869171, -0.3249150812625885, 0.032066214829683304, -0.4150187373161316, 0.0953020453453064, -0.14214067161083221, 0.28813648223876953, -0.3012069761753082, -0.2260250747203827, -0.3094218373298645, 0.23567450046539307, 0.1425182968378067, -0.27158722281455994, 0.4347403943538666, 0.7509737014770508, -0.1133391484618187, -0.16231438517570496, -0.22667065262794495, 0.2706390917301178, 0.039533454924821854, 0.17573773860931396, -0.2750137150287628, 0.011996438726782799, -0.11290254443883896, 0.008133724331855774, -0.05740929767489433, -0.4093177020549774, -0.0792711079120636, -0.21930523216724396, -0.07860294729471207, -0.1065613180398941, -0.2743065655231476, -0.06933943182229996, 0.05212417244911194, 0.09118090569972992, 0.032738927751779556, 0.2267438769340515, 0.5059448480606079, 0.2013346254825592, 0.21681219339370728, -0.2519526779651642, 0.37600845098495483, 0.35323044657707214, -0.20906075835227966, 0.23992149531841278, -0.06040728837251663, 0.04354557394981384, -0.02170138619840145, 0.4194338619709015, -0.05124523490667343, 0.4064488708972931, 0.07793586701154709, -0.25329726934432983, -0.16528870165348053, -0.18238791823387146, 0.022802146151661873, 0.22028140723705292
-0.27817514538764954, -0.05598588287830353, -0.1053268238902092, 0.031492818146944046, 0.26783767342567444, -0.22135259211063385, -0.254710853099823, -0.4319166839122772, 0.1627669483423233, -0.4838164448738098, -0.03721895441412926, 0.18228031694889069, -0.15879015624523163, 0.17576821148395538, -0.3937954008579254, -0.14721544086933136, 0.2470388263463974, 0.205083966255188, -0.37513798475265503, -0.13030654191970825, -0.5089746713638306, -0.16656582057476044, 0.4000881016254425, -0.02377433329820633, -0.1177191510796547, -0.18524707853794098, -0.06113743782043457, 0.18267877399921417, -0.32512831687927246, -0.060404494404792786, 0.2700088322162628, -0.05600639432668686, -0.21334651112556458, -0.1450866013765335, 0.10562263429164886, -0.21976931393146515, -0.08232364803552628, -0.22071823477745056, 0.08361298590898514, -0.2391676902770996, 0.3840647041797638, -0.24283425509929657, 0.2604638934135437, -0.21403633058071136, -0.09271921962499619, -0.1263171285390854, -0.11205795407295227, 0.025189507752656937, -0.19938835501670837, 0.15504173934459686, 0.4138696491718292, -0.09116865694522858, -0.12310845404863358, -0.1191437691450119, -0.20355075597763062, 0.09252431243658066, -0.3136320412158966, -0.0540219284594059, 0.18033277988433838, -0.142415389418602, -0.39121538400650024, 0.08051249384880066, 0.14391334354877472, 0.19319728016853333, -0.09263861179351807, -0.4395638108253479, 0.23449887335300446, -0.12491600960493088, -0.24115189909934998, 0.14300523698329926, 0.062632717192173, -0.10841278731822968, 0.16025373339653015, -0.06203353404998779, -0.017888251692056656, -0.21827000379562378, 0.20593442022800446, -0.019303113222122192, 0.40533900260925293, 0.0912468209862709, 0.12846854329109192, -0.19940567016601562, 0.06570826470851898, -0.23200762271881104, 0.03876041620969772, 0.18988297879695892, 0.24101689457893372, 0.2777958810329437, 0.19180083274841309, -0.21226096153259277, 0.2569214701652527, -0.1039305180311203, -0.18909914791584015, -0.049739718437194824, -0.33165204524993896, 0.49157601594924927, -0.17413929104804993, 0.017638782039284706, -0.11448435485363007, 0.2949974238872528
0.10521980375051498, 0.5102364420890808, -0.27921053767204285, -0.4953751564025879, 0.1797938495874405, 0.3781597316265106, 0.10803695768117905, -0.4625873267650604, 0.0848662257194519, -0.5226700305938721, 0.2577517330646515, 0.5358144044876099, -0.002316947327926755, 0.08735054731369019, -0.5233519673347473, 0.6488935351371765, -0.0007217639940790832, -0.08489328622817993, 0.1374713033437729, -0.31646621227264404, -0.32388702034950256, -0.4228117763996124, -0.01212642714381218, -0.3429153561592102, 0.12852682173252106, 0.4160456657409668, -0.08993753045797348, 0.002246537245810032, -0.6557320356369019, 0.08111655712127686, -0.012124328874051571, 0.4959714114665985, -0.11050780862569809, -0.028614379465579987, -0.00943017564713955, 0.23569217324256897, -0.7048282623291016, -0.5416882634162903, -0.1544780731201172, 0.5442456007003784, -0.05174308642745018, -0.47688063979148865, -0.3099575340747833, 0.19862206280231476, -0.08451671898365021, 0.12224754691123962, 0.1553228348493576, 0.21701188385486603, -0.28354892134666443, -0.5297911763191223, 0.28737160563468933, -0.14091642200946808, 0.03598914295434952, 0.16002321243286133, 0.03173726797103882, 0.07874786108732224, -0.5117418169975281, 0.6328834295272827, 0.026098079979419708, -0.0009989079553633928, -0.05005350336432457, 0.008174333721399307, 0.5188090801239014, -0.3492406904697418, -0.31798917055130005, -0.6278513669967651, -0.2789649963378906, 0.13417646288871765, 0.2618764638900757, 0.31903359293937683, 0.4826790988445282, -0.35348910093307495, 0.07607767730951309, 0.32348328828811646, -0.3322632908821106, 0.0007537120254710317, -0.04356413334608078, -0.07646019011735916, -0.31509289145469666, 0.25664958357810974, -0.20001760125160217, 0.22716061770915985, -0.5493646264076233, -0.5782066583633423, -0.5524157881736755, 0.029535064473748207, 0.22157874703407288, -0.11935758590698242, -0.26973533630371094, 0.11337058991193771, -0.4262537360191345, -0.36420708894729614, 0.31333816051483154, 0.39453160762786865, -0.01969893090426922, 0.19055235385894775, -0.5452572703361511, 0.15827040374279022, -0.27805227041244507, 0.629667341709137
0.11083092540502548, 0.7886123657226562, -0.16902656853199005, 0.18422693014144897, -1.0183323621749878, -0.27504831552505493, 0.4860151708126068, 0.2599039077758789, 0.6116729378700256, 0.21624241769313812, 0.6822898983955383, -0.40539467334747314, 0.06371717154979706, -0.06876847892999649, -0.4125942885875702, 0.10884754359722137, 0.37797266244888306, 0.326099157333374, 0.23991701006889343, 0.4726060628890991, -0.290819376707077, -0.09609105437994003, 0.8915534615516663, -0.0639914721250534, 0.036990370601415634, 0.8256135582923889, -0.4517861008644104, -0.4676264524459839, 0.9890377521514893, 0.6009171009063721, -0.20815125107765198, -0.3735388219356537, -0.24570314586162567, -0.24558189511299133, 0.5644839406013489, -0.08903010934591293, 0.012648509815335274, 0.386411190032959, 0.28842175006866455, 0.30139151215553284, 0.3381897807121277, 0.15031585097312927, 0.3747286796569824, -0.6262159943580627, -0.17116571962833405, -0.041883084923028946, -0.5401802659034729, 0.26316845417022705, 0.08488429337739944, 0.2743212878704071, 0.26550808548927307, -0.4078643023967743, 0.5597085952758789, -0.19559450447559357, -0.17536461353302002, -0.36510100960731506, -0.5974010825157166, 0.05850539356470108, -0.14687658846378326, -0.2602536380290985, -0.3663346767425537, 0.3024505078792572, -0.2683905065059662, 0.36828434467315674, -0.5522953867912292, -1.0721004009246826, -0.4767477512359619, -0.3184913098812103, -0.0757092610001564, 0.8253237009048462, -0.1616106629371643, -0.0540923997759819, -0.03952862694859505, -0.23393617570400238, -0.10344281047582626, 0.317473441362381, -0.960233211517334, -0.5657642483711243, -0.16636888682842255, 0.3043936491012573, -0.3372167944908142, 0.24579480290412903, -0.3327079117298126, -0.7859414219856262, 0.3191036581993103, -0.462631493806839, 0.5664650797843933, -0.02783612720668316, 0.10112182796001434, -0.1541425734758377, 0.6474261283874512, 0.378493994474411, 0.034671422094106674, -0.7979674935340881, -0.05191764235496521, 0.10545122623443604, 0.9253475666046143, 0.27111658453941345, -0.19681116938591003, 0.20105506479740143
0.18439115583896637, 0.341363787651062, 0.08508603274822235, -0.34452930092811584, 0.4263312518596649, 0.04945944994688034, -0.06942284107208252, -0.027438979595899582, 0.20639434456825256, 0.0796428918838501, -0.48018473386764526, -0.23210281133651733, 0.033770374953746796, 0.10649863630533218, -0.15373262763023376, 0.015384595841169357, 0.10281001031398773, 0.35688820481300354, 0.3550269603729248, 0.11234118789434433, 0.0843338668346405, -0.16810046136379242, -0.3965366780757904, -0.1552676558494568, 0.25704115629196167, 0.03218990936875343, 0.004083750303834677, 0.002605824964120984, -0.034204866737127304, -0.05852610990405083, -0.441140353679657, -0.0352359414100647, 0.07080807536840439, -0.2017793357372284, -0.04691969230771065, 0.023963673040270805, 0.03857017681002617, -0.02727573923766613, -0.3727640211582184, 0.7092682123184204, 0.13897430896759033, -0.13868111371994019, 0.027201900258660316, 0.20080292224884033, -0.20972996950149536, -0.45913735032081604, -0.16367892920970917, 0.09110777825117111, -0.050208304077386856, 0.028961770236492157, 0.3921545147895813, 0.17983070015907288, 0.03626076877117157, 0.26524609327316284, 0.6049513220787048, -0.03560074046254158, 0.3916530907154083, -0.20279252529144287, 0.19802901148796082, -0.08544858545064926, -0.30517470836639404, 0.08376326411962509, 0.04088345170021057, 0.0678163543343544, -0.4203135073184967, 0.09311555325984955, -0.06383826583623886, 0.1309909224510193, 0.06752733141183853, -0.41530245542526245, -0.28676676750183105, -0.36253154277801514, -0.23724247515201569, 0.09580502659082413, -0.07307037711143494, 0.1586553305387497, -0.12884998321533203, 0.08086446672677994, 0.023502549156546593, -0.31665778160095215, 0.06537238508462906, 0.15408317744731903, -0.4990217685699463, -0.18436852097511292, 0.03637474775314331, 0.13327550888061523, 0.05313768610358238, -0.2758370041847229, 0.0811835378408432, -0.006739000324159861, 0.19480866193771362, -0.24617689847946167, -0.1786760538816452, -0.023637335747480392, -0.30982983112335205, -0.1355440467596054, -0.1519768387079239, 0.39105749130249023, 0.18102127313613892, 0.06237257272005081
-0.135070338845253, -0.3806400001049042, 0.11463218182325363, -0.22724366188049316, -0.0665152445435524, 0.2099095582962036, 0.36629772186279297, -0.12594471871852875, -0.02056097239255905, -0.08577974140644073, -0.2974415719509125, -0.29026663303375244, -0.5633234977722168, 0.07020945101976395, 0.42429712414741516, -0.12520329654216766, 0.018173662945628166, -0.030734330415725708, 0.026155121624469757, 0.6531038880348206, -0.07392159104347229, 0.11209825426340103, 0.015988770872354507, 0.3054170608520508, 0.35304713249206543, -0.49538201093673706, 0.04902688413858414, 0.38564741611480713, -0.18146578967571259, -0.11576563119888306, -0.10155542939901352, 0.06552613526582718, 0.2318936437368393, -0.07168176770210266, 0.27959951758384705, -0.06418953835964203, -0.37454304099082947, 0.11809490621089935, 0.1761646866798401, 0.2658253610134125, 0.05158296227455139, -0.13110332190990448, -0.07915584743022919, -0.280136376619339, -0.3802204132080078, 0.38366153836250305, 0.06776785105466843, 0.14975610375404358, 0.4977106750011444, 0.28917771577835083, 0.13622058928012848, -0.09415879100561142, 0.47949495911598206, -0.12359503656625748, 0.5695993900299072, 0.020730774849653244, 0.21152637898921967, 0.04106806218624115, -0.20248112082481384, 0.01863270066678524, -0.09502580761909485, 0.4611745774745941, 0.5441929697990417, -0.21519193053245544, 0.3816286325454712, -0.2895418703556061, -0.00923964660614729, -0.10902223736047745, 0.012428619898855686, -0.13729353249073029, 0.2768959105014801, -0.11088242381811142, -0.22309191524982452, -0.010403652675449848, 0.028218133375048637, -0.2932208478450775, -0.22343817353248596, -0.004317094571888447, 0.0350135862827301, 0.19574445486068726, 0.014014320448040962, -0.2254762202501297, 0.11850937455892563, 0.2670866847038269, -0.5580217242240906, -0.39683765172958374, -0.32622191309928894, 0.13426914811134338, -0.23608671128749847, -0.07443100959062576, 0.40074408054351807, -0.09294737130403519, 0.24760064482688904, 0.1469077467918396, 0.06919309496879578, 0.010349025018513203, 0.15841616690158844, -0.2640221118927002, -0.33406075835227966, -0.006821862421929836
